tree
version=v4
num_class=1
num_tree_per_iteration=1
label_index=0
max_feature_idx=9
objective=binary sigmoid:1
feature_names=daily_sales_avg_7 daily_sales_avg_14 daily_sales_avg_30 demand_velocity day_of_week month holiday_flag simulated_inventory inventory_to_sales_ratio inventory_to_sales_ratio_7
feature_infos=[0:629.28571428571433] [0.7857142857142857:505.5] [39.166666666666657:505.5] [-0.99999995500388095:2.1864288962982403] [0:6] [1:12] [0:1] [0:3154.734776725305] [0:52.482890262151635] [0:205286738.83626524]
tree_sizes=3246 3124 3648 3121 3342 3462 3121 3239 3234 3660 3246 3243 3770 2946 3223 3040 3046 3023 3345 3455 3354 3479 3165 3148 3257 2946 3480 3338 3048 3168 3455 3877 3263 3387

Tree=0
num_leaves=31
num_cat=0
split_feature=8 5 7 0 1 2 2 8 1 7 5 5 2 8 8 0 2 2 5 0 1 1 1 7 0 0 8 2 4 0
split_gain=838.998 158.423 161.521 156.859 125.767 75.8737 70.8542 69.7835 61.7293 43.2264 47.2453 41.9601 159.756 27.7334 26.7352 31.0934 25.1607 22.8439 22.5156 15.6527 15.0244 16.9992 12.8742 11.0707 5.06113 4.49897 3.65385 0.834743 0.546337 1.77636e-15
threshold=9.5122110833257647 9.5000000000000018 2052.3673883626529 128.85714285714289 58.964285714285722 148.3666666666667 65.450000000000017 2.986469482805592 112.89285714285717 798.91069012178639 6.5000000000000009 10.500000000000002 152.30000000000004 11.874324658052322 26.772449043661506 71.071428571428584 151.51666666666668 60.933333333333337 11.500000000000002 79.214285714285737 207.35714285714289 156.39285714285717 91.035714285714306 26.170500676590112 46.285714285714292 185.28571428571431 1.4431663261181866 178.41269841269846 3.5000000000000004 99.142857142857153
decision_type=2 2 2 2 2 2 2 2 2 2 2 2 2 2 2 2 2 2 2 2 2 2 2 2 2 2 2 2 2 2
left_child=3 6 22 4 -1 9 17 20 -9 10 -6 12 -10 16 24 -16 19 -2 -13 -8 21 26 -3 -23 -15 -4 -5 -22 -29 -7
right_child=1 2 25 7 5 29 13 8 11 -11 -12 18 -14 14 15 -17 -18 -19 -20 -21 27 23 -24 -25 -26 -27 -28 28 -30 -31
leaf_value=-1.3271968199419306 -1.4604758368072237 -1.3906565425067738 -1.5101807360219117 -1.3424744151957217 -1.4140613696591169 -1.5101807360219117 -1.4044609598071314 -1.5101807360219117 -1.356892748374958 -1.3694540906342685 -1.5101807360219117 -1.312396649410839 -1.5101807360219117 -1.473240519232444 -1.5101807360219117 -1.4307360847096819 -1.5101807360219117 -1.3775351235527078 -1.3686255272347208 -1.4638137726967657 -1.3296361507304333 -1.349271650328721 -1.342316836856368 -1.4004277196614303 -1.5101807360219117 -1.4677984336564525 -1.3205450579211895 -1.3231140142908597 -1.314637251960775 -1.5101807360219117
leaf_weight=12.162022352218626 5.2674520611762983 7.6667625308036831 8.3424307405948621 17.953461647033695 17.705257475376133 6.5222640335559827 6.191324442625052 3.0336111783981314 25.620224177837372 12.093076795339583 6.2189029157161704 11.913817763328552 8.0390696227550489 3.5438093841075888 8.0390696227550524 9.8868143856525403 6.9773057103157035 6.9083597362041473 13.871876001358032 11.293306916952131 8.7009479701518995 8.1355932354927045 14.037345588207243 7.1565643250942221 57.486931830644608 3.088767707347869 11.045101910829542 13.995978087186815 13.389255851507185 3.1852917373180389
leaf_count=23 28 27 55 41 73 43 24 20 68 36 41 18 53 20 53 45 46 22 41 61 17 20 32 27 379 17 19 25 21 21
internal_value=-1.41129 -1.46529 -1.40746 -1.37128 -1.41294 -1.43574 -1.48187 -1.3544 -1.37818 -1.41568 -1.43905 -1.37144 -1.3935 -1.48993 -1.49857 -1.46636 -1.46202 -1.41342 -1.34265 -1.4428 -1.33591 -1.34762 -1.35939 -1.37321 -1.50804 -1.49873 -1.33412 -1.32154 -1.31897 -1.51018
internal_weight=349.472 148.73 33.1353 200.742 57.8868 45.7248 115.594 142.856 62.4786 36.0172 23.9242 59.445 33.6593 103.419 78.9566 17.9259 24.4619 12.1758 25.7857 17.4846 80.3769 44.2907 21.7041 15.2922 61.0307 11.4312 28.9986 36.0862 27.3852 9.70756
internal_count=1416 809 131 607 237 214 678 370 200 150 114 180 121 628 497 98 131 50 59 85 170 107 59 47 399 72 60 63 46 64
is_linear=0
shrinkage=1


Tree=1
num_leaves=29
num_cat=0
split_feature=8 5 3 7 9 1 5 7 0 1 8 9 3 9 1 8 8 5 1 0 1 1 1 3 0 1 1 0
split_gain=709.043 148.441 135.571 132.73 99.0142 93.5447 48.9544 79.3875 56.1288 59.4499 41.1195 47.2495 33.6759 31.4016 45.3205 25.0541 18.5064 11.5559 8.68155 6.49916 5.61108 5.07336 4.40077 3.44288 2.26652 3.35303 0.000547188 6.9848e-06
threshold=9.9630490486779362 9.5000000000000018 -0.03214185061492849 2052.3673883626529 884.70586128111029 40.642857142857146 10.500000000000002 351.21041948579165 191.21428571428575 112.89285714285717 26.772449043661506 30.636223851083667 -0.5180663936950417 12.770529094356833 117.64285714285715 11.874324658052322 11.334323831297818 6.5000000000000009 91.035714285714306 138.57142857142858 68.321428571428598 141.82142857142858 182.00000000000003 -0.64930765314157413 324.28571428571433 212.3928571428572 71.142857142857153 73.500000000000014
decision_type=2 2 2 2 2 2 2 2 2 2 2 2 2 2 2 2 2 2 2 2 2 2 2 2 2 2 2 2
left_child=2 4 5 18 10 -1 7 19 9 -9 15 -12 23 14 -14 16 -2 -10 -3 -4 -13 -21 27 -7 25 -8 -17 -5
right_child=1 3 6 22 -6 12 24 8 17 -11 11 20 13 -15 -16 26 -18 -19 -20 21 -22 -23 -24 -25 -26 -27 -28 -29
leaf_value=0.13330209084175523 -0.017881881876618506 0.078432276303156093 0.088503617784760388 -0.036626100382497341 0.11953864793905966 -0.03684670082096609 0.13548208611731211 0.0017054397931949936 0.034992873375397984 0.10013999192335094 0.067327878211105044 -0.036820652469990146 -0.0064262539046384673 0.1089629840236037 0.060300448680471394 -0.036961260279726953 0.043522070756043828 -0.037119463590001338 0.11759782808497664 0.13690706337888173 0.0012660704064195896 0.11673305475680944 0.0058074425888796615 0.0050564611409474628 0.14117461343470308 0.11473285248696033 -0.036634848340537089 -0.036684712622233259
leaf_weight=12.230302155017851 13.772948831319811 7.906527295708659 5.1990291327238074 4.741851329803465 5.0115632116794577 4.0742019563913345 18.871613666415218 6.7471746802330008 3.6133298873901349 30.410980880260468 10.01416450738907 7.085672512650488 12.811600878834723 7.1520357877016059 32.148693442344666 5.0363457500934592 6.503266140818595 4.479287788271904 14.317587599158285 17.223736524581909 6.8437485098838806 32.180109396576881 3.0712871551513672 3.1131092756986609 18.27906845510006 11.151086166501043 56.206852436065674 2.9797441363334656
leaf_count=20 84 26 16 32 12 27 30 37 16 81 37 47 73 18 122 33 29 29 30 27 38 68 17 17 27 24 379 20
internal_value=0.0577987 0.00593232 0.0916761 0.0617468 -0.0107487 0.0577591 0.108051 0.0960576 0.0666737 0.0822663 -0.0169399 0.0176247 0.0421786 0.0505745 0.0412864 -0.0270921 0.00181244 -0.00492152 0.103664 0.120409 -0.018108 0.123766 -0.0245671 -0.0186968 0.132846 0.127775 -0.0366617 -0.0366487
internal_weight=363.177 143.492 219.685 33.017 110.475 71.5299 148.155 99.8536 45.2508 37.1582 105.463 23.9436 59.2996 52.1123 44.9603 81.5194 20.2762 8.09262 22.2241 54.6029 13.9294 49.4038 10.7929 7.18731 48.3018 30.0227 61.2432 7.7216
internal_count=1416 784 632 125 659 277 355 274 163 118 647 122 257 213 195 525 113 45 56 111 85 95 69 44 81 54 412 52
is_linear=0
shrinkage=0.03


Tree=2
num_leaves=34
num_cat=0
split_feature=8 3 7 1 2 8 1 1 1 3 2 7 7 2 8 8 0 7 8 4 0 8 2 1 4 8 8 0 4 3 1 8 1
split_gain=609.518 121.856 113.685 82.2636 56 62.984 41.3939 70.1805 38.4982 36.4796 44.4453 28.0088 26.9045 31.1649 30.6953 23.1041 20.5214 23.954 15.7766 28.0238 25.248 12.8791 10.823 7.56865 7.38247 6.80356 4.72569 3.57755 1.24021 0.0017477 0.000455939 0.000385259 6.01698e-05
threshold=9.5122110833257647 -0.03214185061492849 1974.6441136671181 40.642857142857146 65.450000000000017 12.704019068688664 111.67857142857144 82.428571428571445 55.428571428571438 -0.23548134599918313 148.3666666666667 424.20838971583277 1364.801082543979 137.05000000000004 10.092958191533663 7.4959325080815953 293.78571428571433 1087.4208389715834 26.772449043661506 2.5000000000000004 71.071428571428584 11.334323831297818 102.66666666666667 115.75000000000001 2.5000000000000004 18.404939576433559 7.9597365786571705 142.57142857142858 2.5000000000000004 -0.12455679408928919 94.214285714285722 12.584107958641701 83.178571428571431
decision_type=2 2 2 2 2 2 2 2 2 2 2 2 2 2 2 2 2 2 2 2 2 2 2 2 2 2 2 2 2 2 2 2 2
left_child=1 3 4 -1 8 12 7 -3 -2 10 23 -11 14 -14 -6 -13 17 22 21 20 -20 -4 -8 -5 30 -26 -12 -9 -18 -21 -7 -23 -33
right_child=2 6 18 9 5 24 16 27 -10 11 26 15 13 -15 -16 -17 28 -19 19 29 -22 31 -24 -25 25 -27 -28 -29 -30 -31 -32 32 -34
leaf_value=0.11988901562433622 0.12246467280486946 0.11382731836517587 0.013834930223291755 0.034126827510072781 0.05898635317500818 -0.036834316874602008 0.12773919529054442 -0.037474544230416858 0.030849935306448709 0.094581930115022528 -0.037041164652629403 0.0085119621491317431 0.096526328971329928 0.031329017600203402 -0.036985119315745503 0.074707367797806179 0.11551856364501079 0.056077948668544202 -0.01311198098395993 -0.036616203360642252 0.07663595365266189 -0.036747758281807041 0.098431609849976259 0.084333096365991359 -0.015233028299854706 0.030491941450346859 0.0053899302047633281 0.0062928671618168452 0.12637180602954667 -0.037429126195618737 -0.036397209305391226 -0.036540807997943722 -0.036410614945083061
leaf_weight=13.17488372325897 8.9723469763994235 7.735970735549925 5.1469283401966086 7.2987085431814176 5.4161409139633161 3.0042217671871203 13.376818358898161 3.8137609511613846 7.6460020542144767 11.846739351749425 10.413923561573027 11.382855996489527 11.669008806347849 15.18574011325836 6.7217779606580734 8.1382000744342786 14.402946054935454 11.076554745435713 5.5533382594585436 5.6163342595100403 5.7340196520090103 3.5854626893997184 74.493488490581512 4.2912035882472992 12.104469150304793 3.8634422421455374 3.0554204881191245 3.0054220259189606 27.699968919157982 4.1308245211839658 7.5329250395298004 3.5176497250795355 34.810735732316971
leaf_count=20 17 15 27 32 20 20 20 24 34 31 68 58 30 68 44 26 24 38 34 38 19 24 168 13 74 18 16 16 38 26 52 24 240
internal_value=0.0541686 0.0853875 0.00736319 0.052392 0.0311297 0.0186506 0.100146 0.0519787 0.0803133 0.0366324 0.00964501 0.0581922 0.0429053 0.0596588 0.00583895 0.0361084 0.105117 0.0976525 -0.0212968 0.000302113 0.0324803 -0.0309508 0.102893 0.0527159 -0.0170315 -0.00416985 -0.027416 -0.0181849 0.122659 -0.0369607 -0.0365218 -0.0364504 -0.0364226
internal_weight=375.418 225.207 150.211 69.6019 82.1161 65.4977 155.605 14.5552 16.6183 56.4271 25.0593 31.3678 38.9927 26.8547 12.1379 19.5211 141.05 98.9469 68.0953 21.0345 11.2874 47.0608 87.8703 11.5899 26.5051 15.9679 13.4693 6.81918 42.1029 9.74716 10.5371 41.9138 38.3284
internal_count=1416 607 809 264 377 326 343 55 51 244 129 115 162 98 64 84 288 226 432 117 53 315 188 45 164 92 84 40 62 64 72 288 264
is_linear=0
shrinkage=0.03


Tree=3
num_leaves=29
num_cat=0
split_feature=7 9 1 2 5 2 5 0 5 7 2 9 7 7 5 7 1 7 7 5 2 3 1 9 7 0 7 1
split_gain=524.992 126.016 109.408 89.688 79.8453 75.7632 73.5705 54.0913 58.5259 53.6152 35.5829 44.2022 31.123 32.6373 22.7672 41.4738 56.5691 18.026 19.8741 48.6041 5.09591 3.6598 3.59145 3.54631 3.28275 2.97132 2.5739 0.0042018
threshold=1568.9695534506102 4.3827844250874772 58.178571428571438 114.68333333333335 10.500000000000002 174.6166666666667 8.5000000000000018 124.92857142857144 2.5000000000000004 2052.3673883626529 69.933333333333351 31.426993275599798 986.10419485791647 697.18403247631943 10.500000000000002 351.21041948579165 163.71428571428575 3007.1684709066317 1752.7083897158329 8.5000000000000018 147.18333333333337 0.53265387048534374 214.28571428571431 46.946809175987319 2400.2083897158332 4.5000000000000009 1.0000000180025095e-35 68.785714285714292
decision_type=2 2 2 2 2 2 2 2 2 2 2 2 2 2 2 2 2 2 2 2 2 2 2 2 2 2 2 2
left_child=1 7 25 12 10 6 -5 8 -1 -6 11 -2 13 -4 15 20 -17 18 19 -12 -9 -20 -7 -13 -11 -3 -16 -14
right_child=4 2 3 5 9 22 -8 14 -10 24 17 23 27 -15 26 16 -18 -19 21 -21 -22 -23 -24 -25 -26 -27 -28 -29
leaf_value=0.10754564962898722 0.088211359080196436 0.097442240404407798 -0.037453102588478351 0.041163037759434543 0.089422174556607906 -0.036852397507907725 0.1045380532457728 0.1080223933567772 -0.037433414787926944 -0.036573173970123468 -0.036750534918332779 -0.036724984056365262 -0.03762160756517495 0.051858689085453255 0.10591304010699776 0.080102305375052835 -0.037872656115111474 0.047889831245745744 -0.036418772928902929 0.071127654984406347 0.090810393931059094 -0.0087522575581242042 0.0021957988467725029 0.0047947597007407276 0.0059180894987889091 0.11784123753251204 0.11991415621826214 -0.036427325498307427
leaf_weight=4.4746282100677472 6.2177938967943174 12.430010214447977 5.3932320326566758 39.579476580023766 12.239382386207582 6.1482569426298124 28.254439935088158 34.53521753847599 5.6960203796625137 3.5137095600366584 10.113367334008219 4.473348081111908 3.5371627360582343 11.609096348285673 19.729962959885597 14.296611472964289 4.9157508313655844 3.0739918798208228 54.677932485938072 5.9821420758962622 28.05912883579731 4.6707832068204871 3.2354259938001633 3.158816859126091 3.0627009123563766 13.305811554193495 29.464588582515717 10.586917653679846
leaf_count=9 17 25 34 156 29 41 55 55 36 24 68 30 22 42 31 38 30 13 378 19 57 28 16 18 17 19 36 73
internal_value=0.050991 0.0732146 0.0523859 0.0391781 -0.00402678 0.0565079 0.0675602 0.0929969 0.0263509 0.0523013 -0.0155011 0.0288335 -0.00381308 0.0235285 0.0981711 0.0884727 0.0499168 -0.0233213 -0.0262228 0.00334404 0.100307 -0.0342414 -0.0233889 -0.0195407 -0.0167846 0.107989 0.114299 -0.0367264
internal_weight=386.436 275.252 134.08 108.344 111.184 77.2176 67.8339 141.172 10.1706 18.8158 92.3682 13.85 31.1264 17.0023 131.001 81.8067 19.2124 78.5182 75.4442 16.0955 62.5943 59.3487 9.38368 7.63216 6.57641 25.7358 49.1946 14.1241
internal_count=1416 775 483 439 641 268 211 292 45 70 571 65 171 76 247 180 68 506 493 87 112 406 57 48 41 44 67 95
is_linear=0
shrinkage=0.03


Tree=4
num_leaves=31
num_cat=0
split_feature=8 5 7 3 2 5 1 2 5 3 1 1 5 1 7 8 7 8 8 2 5 1 2 1 3 2 7 3 8 2
split_gain=466.408 118.935 93.4653 79.8957 63.8133 61.5372 56.999 34.0905 67.2225 34.3401 30.417 57.1995 21.5879 26.1415 21.3267 27.5665 16.2278 19.6416 15.5337 13.6542 11.4215 10.1447 9.37944 6.86862 4.70683 3.33596 2.33329 0.00357575 0.00209521 8.79325e-05
threshold=9.9630490486779362 9.5000000000000018 2052.3673883626529 -0.03214185061492849 69.933333333333351 3.5000000000000004 40.642857142857146 148.3666666666667 10.500000000000002 -0.18712852848333131 111.67857142857144 82.428571428571445 8.5000000000000018 117.64285714285715 1132.2083897158329 7.6962146450815805 3007.1684709066317 11.874324658052322 11.334323831297818 63.833333333333336 10.500000000000002 71.142857142857153 107.16666666666669 91.035714285714306 0.045431175487670158 105.78333333333333 1.0000000180025095e-35 -0.20595772153079175 32.424204000460186 180.35000000000005
decision_type=2 2 2 2 2 2 2 2 2 2 2 2 2 2 2 2 2 2 2 2 2 2 2 2 2 2 2 2 2 2
left_child=3 4 23 6 5 28 -1 12 27 -10 11 -5 13 -8 20 -16 17 18 -6 -7 22 -19 -12 -3 29 -13 -22 -9 -2 -4
right_child=1 2 24 10 16 19 7 8 9 -11 14 25 -14 -15 15 -17 -18 21 -20 -21 26 -23 -24 -25 -26 -27 -28 -29 -30 -31
leaf_value=0.1009803886716792 -0.037506681349378609 0.062513697030841239 -0.036018824307967982 0.096214716580717327 -0.017208728298976409 0.10005405592662706 0.011652645638425467 -0.036845892745212744 0.011112467374635341 0.10066001043275816 0.10959657512184903 -0.037401758242043365 0.093019934184454256 0.073311636126203908 0.095012493417222718 0.019797635307240026 0.045111313631405511 0.0034830734692032875 0.038370260994069941 0.041023464033084482 0.095443655030325203 -0.036132301311020791 0.082202220730337783 0.095131331875113828 0.0091982886956750963 0.0041512524098306844 0.1093361424438434 -0.037895105977114089 -0.036446384140460905 -0.03623106089395401
leaf_weight=14.713005691766737 3.9698779284954098 8.9838177263736743 4.5917639285325986 8.6195380985736829 13.236769810318949 7.5115312933921796 13.178361251950266 9.3355396687984449 7.9883832633495331 7.4474681913852692 13.086126700043677 3.9283359199762335 9.8869986534118635 11.667256772518156 8.6845833361148852 8.8590790629386884 3.1639945656061164 6.4659772366285315 6.8772219866514197 6.6475380957126617 17.226754322648048 58.029844835400581 80.106316238641739 16.449127823114395 2.857679009437561 3.1197710931301117 29.535354971885681 4.2561451196670541 2.9044917225837708 2.8457811027765274
leaf_count=20 25 26 33 15 80 15 63 62 39 13 18 25 21 33 15 36 13 36 29 28 26 413 170 30 16 16 34 26 20 20
internal_value=0.0481967 0.00524669 0.0527379 0.0728661 -0.0103476 0.036585 0.0477551 0.035473 0.0114777 0.0543172 0.0842456 0.0443813 0.055527 0.0406071 0.0882112 0.057031 -0.0215942 -0.0240887 0.00179441 0.0723398 0.0921197 -0.0321607 0.0860489 0.0836096 -0.0235264 -0.0190088 0.104218 -0.0371744 -0.0370587 -0.0361
internal_weight=396.174 144.535 35.7282 251.639 108.807 21.0334 78.4732 63.7602 29.0275 15.4359 173.166 15.6676 34.7326 24.8456 157.498 17.5437 87.7738 84.6098 20.114 14.1591 139.955 64.4958 93.1924 25.4329 10.2952 7.04811 46.7621 13.5917 6.87437 7.43755
internal_count=1416 784 125 632 659 88 277 257 140 52 355 56 117 96 299 51 571 558 109 43 248 449 188 56 69 41 60 88 45 53
is_linear=0
shrinkage=0.03


Tree=5
num_leaves=32
num_cat=0
split_feature=7 9 5 5 5 0 5 7 0 0 5 8 9 7 5 5 5 7 0 7 4 7 4 8 7 8 8 5 3 3 0
split_gain=415.951 93.1233 69.5771 45.4555 37.9968 69.267 68.7895 61.1745 36.2353 35.4925 65.3695 31.401 44.1989 18.7975 35.0546 16.5896 15.2569 27.3076 17.5002 13.0862 12.862 9.30924 8.77316 2.69705 1.74697 0.00547147 0.00333934 0.00192344 0.00135975 0.000362642 0.000314401
threshold=1568.9695534506102 4.3827844250874772 10.500000000000002 11.500000000000002 8.5000000000000018 46.285714285714292 11.500000000000002 1013.7746955345067 144.07142857142858 128.85714285714289 2.5000000000000004 26.772449043661506 30.636223851083667 1752.7083897158329 8.5000000000000018 10.500000000000002 10.500000000000002 351.21041948579165 191.21428571428575 1192.6840324763195 1.5000000000000002 1302.3809201623819 1.5000000000000002 1.8697849795525927 1.0000000180025095e-35 11.874324658052322 11.966571334197104 9.5000000000000018 -0.15102565396307241 -0.11650545493202519 75.071428571428584
decision_type=2 2 2 2 2 2 2 2 2 2 2 2 2 2 2 2 2 2 2 2 2 2 2 2 2 2 2 2 2 2 2
left_child=1 9 11 -4 5 -3 15 8 -7 10 -1 13 -13 14 25 19 17 23 -19 -6 -9 -8 -14 -11 -18 -2 30 -28 -24 -12 -15
right_child=2 4 3 -5 6 7 21 20 -10 16 29 12 22 26 -16 -17 24 18 -20 -21 -22 -23 28 -25 -26 -27 27 -29 -30 -31 -32
leaf_value=0.098461499660983415 -0.037414786227868729 0.086929040834369919 0.07913914028989992 -0.017691393401522468 0.084861556858915388 0.027903918272148415 0.023628474731131156 0.012846658985254762 0.090763931812376908 0.083399822551413066 -0.037006488819783113 0.059766047172040669 0.010881699187958151 -0.036346853721940832 0.050665654520903838 0.10763398524961838 0.090724854143167305 0.065011151672770551 0.004002362657104558 0.041127288566000057 -0.029532387826816459 -0.038293351385011255 -0.036189931044880726 0.09908735624456079 0.10171428341586357 -0.035909737311173633 -0.035787001945831606 -0.036541622809258691 -0.036941183196550036 -0.037465409952418975 -0.036767394458459765
leaf_weight=6.5908039361238462 3.2776403874158877 18.409085169434547 13.19822269678116 6.517955631017684 16.746333748102192 33.217671677470207 4.1408052742481214 10.359861046075823 10.981784686446188 54.406525164842606 3.0483905673027039 10.642350107431414 5.4568249583244315 2.880373388528823 7.2660180926322928 15.785431206226347 21.648462504148483 13.641817420721056 6.1343922466039649 9.7384655028581601 17.057909086346626 4.6264533996582031 6.7916308790445319 12.047329932451246 32.660576581954956 6.4558217823505402 37.799469038844109 3.3057888746261588 3.1853234171867362 3.1520920544862747 3.5992436110973358
leaf_count=11 21 35 32 38 36 134 17 52 21 95 20 35 29 20 24 18 31 35 29 34 108 28 48 15 36 47 279 23 21 20 24
internal_value=0.045719 0.0643403 -0.00394758 0.047128 0.0467493 0.035026 0.0674282 0.0216845 0.0435221 0.0805241 0.0326813 -0.0150551 0.0127309 -0.0262738 0.000804641 0.08329 0.0848786 0.0770341 0.0460868 0.0687805 -0.0135194 -0.00904747 -0.0197022 0.0862438 0.0973337 -0.0364165 -0.0359475 -0.0358477 -0.0364298 -0.0372398 -0.0365805
internal_weight=404.771 294.394 110.377 19.7162 141.064 90.0263 51.0375 71.6172 44.1995 153.33 12.7913 90.6605 26.0761 64.5844 16.9995 42.2702 140.539 86.2301 19.7762 26.4848 27.4178 8.76726 15.4338 66.4539 54.309 9.73346 47.5849 41.1053 9.97695 6.20048 6.47962
internal_count=1416 775 641 70 483 350 133 315 155 292 51 571 133 438 92 88 241 174 64 70 160 45 98 110 67 68 346 302 69 40 44
is_linear=0
shrinkage=0.03


Tree=6
num_leaves=29
num_cat=0
split_feature=7 0 1 2 5 2 9 5 2 0 7 5 4 7 7 5 5 1 1 5 7 7 2 5 2 2 2 0
split_gain=372.975 82.1051 81.149 72.1006 64.6283 62.0308 91.7952 40.486 30.8558 34.9929 19.1176 40.1077 22.611 15.8151 18.5833 39.7895 10.5413 7.15548 13.1716 23.8593 4.70182 3.96374 2.95368 2.46466 2.35237 0.791669 0.421652 0.00655977
threshold=1568.9695534506102 157.78571428571431 58.178571428571438 148.68333333333337 10.500000000000002 123.15000000000002 3.5693182138865613 11.500000000000002 69.933333333333351 67.214285714285737 1087.4208389715834 10.500000000000002 1.5000000000000002 3007.1684709066317 1752.7083897158329 8.5000000000000018 7.5000000000000009 207.35714285714289 163.71428571428575 10.500000000000002 1428.2347767253052 2352.1041948579173 76.616666666666688 1.5000000000000002 140.50000000000003 272.05000000000007 184.10000000000002 126.07142857142858
decision_type=2 2 2 2 2 2 2 2 2 2 2 2 2 2 2 2 2 2 2 2 2 2 2 2 2 2 2 2
left_child=1 2 22 5 8 6 -4 -6 9 21 17 12 -12 14 15 -10 -7 18 24 -20 27 -2 -1 -16 -3 26 -19 -5
right_child=4 10 3 20 7 16 -8 -9 13 -11 11 -13 -14 -15 23 -17 -18 25 19 -21 -22 -23 -24 -25 -26 -27 -28 -29
leaf_value=0.099880939580913833 -0.03681341413133097 0.089490600892636704 0.075685550438446575 -0.036413044681145972 0.073785190972940437 0.054363753742341425 -0.0027618184944481175 -0.017345078323598388 -0.036188039371861394 0.074164371239879234 0.055105675410409241 0.083715376100420694 -0.038108730196813823 0.042108149257901364 -0.016164360534522002 0.059890534581038525 0.085437958973071257 0.085803316094003837 0.037094759358541736 0.090569046347356769 0.0046754814429318904 0.0079162336695437034 0.080673936628808993 -0.035864504036800464 0.075338296468598007 0.081950750819998891 0.092112587038032559 -0.037827043915769541
leaf_weight=12.017351210117342 4.58525502681732 28.787458956241608 20.02274726331234 6.3689711391925794 13.722757443785669 17.99418331682682 40.739546403288841 6.449695646762847 9.504533916711809 6.9058422446250916 4.2039195746183413 13.44950759410858 5.2881026715040207 3.2632097005844107 6.4626249223947516 6.5546699017286292 21.641819879412651 14.20742394030094 18.370214387774471 12.701847568154333 3.0527053028345099 2.9175325334072113 17.997709378600121 49.444836318492889 16.704003646969795 14.574941053986548 28.976244539022446 5.5050527900457382
leaf_count=16 31 43 40 44 32 53 214 38 68 18 15 21 32 13 42 19 38 20 57 16 16 16 29 364 31 21 35 34
internal_value=0.0434927 0.0606789 0.0444237 0.0329876 -0.00386691 0.042134 0.0230886 0.0446483 -0.0147849 0.0254337 0.0757016 0.0503919 0.00317498 -0.0224879 -0.0254169 0.00302706 0.0713307 0.0800243 0.0740103 0.0589543 -0.0285314 -0.0194199 0.088364 -0.0335873 0.084294 0.0879964 0.0900368 -0.0370686
internal_weight=412.415 302.604 145.34 115.325 109.811 100.398 60.7623 20.1725 89.6385 14.4086 157.264 22.9415 9.49202 75.2299 71.9667 16.0592 39.636 134.322 76.5635 31.0721 14.9267 7.50279 30.0151 55.9075 45.4915 57.7586 43.1837 11.874
internal_count=1416 775 484 439 641 345 254 70 571 65 291 68 47 506 493 87 91 223 147 73 94 47 45 406 74 76 55 78
is_linear=0
shrinkage=0.03


Tree=7
num_leaves=30
num_cat=0
split_feature=8 5 7 9 3 1 8 9 2 5 5 1 1 8 8 5 5 7 5 2 5 8 1 2 5 2 7 1 5
split_gain=338.832 89.6501 68.8915 60.3071 55.98 41.1357 35.9914 32.8868 24.6217 48.4616 29.2584 22.4688 45.3231 17.7031 17.9197 17.19 18.4336 14.1957 18.9285 10.2854 6.79483 8.57422 5.32455 4.72472 4.46735 2.9208 1.66351 0.0136551 0.00255372
threshold=10.195928924374932 9.5000000000000018 2052.3673883626529 884.70586128111029 -0.03214185061492849 40.642857142857146 26.772449043661506 30.636223851083667 144.51666666666668 10.500000000000002 11.500000000000002 111.67857142857144 82.428571428571445 11.874324658052322 11.334323831297818 8.5000000000000018 6.5000000000000009 1106.801082543979 10.500000000000002 151.33333333333337 10.500000000000002 7.4104487161684718 68.321428571428598 186.98333333333338 10.500000000000002 105.28333333333335 1.0000000180025095e-35 64.678571428571445 10.500000000000002
decision_type=2 2 2 2 2 2 2 2 2 2 2 2 2 2 2 2 2 2 2 2 2 2 2 2 2 2 2 2 2
left_child=4 3 24 6 5 -1 13 -8 15 19 -11 12 -6 14 -2 16 -7 20 -19 -10 21 -13 -9 28 -3 -14 -22 -15 -4
right_child=1 2 23 -5 11 8 7 22 9 10 -12 17 25 27 -16 -17 -18 18 -20 -21 26 -23 -24 -25 -26 -27 -28 -29 -30
leaf_value=0.083253199192016347 -0.025172929436542039 0.055098067408141688 -0.035496079859736789 0.077603946662332765 0.079398595096382224 0.052561762511802307 0.052041304927550387 -0.036266238294557405 0.015072461189179175 0.09832531510979739 0.01833587240847509 0.068465427829803679 -0.037847408621286105 -0.037418557814082196 0.035896754235717268 0.083078188072215481 -0.0040397141152693408 0.017595069128275187 0.074533588374008822 -0.036729293186180775 0.077831076997097473 0.096130216351020453 0.0015224287565411146 0.0097250456938620094 0.079601225419305227 0.00034997410896744571 0.088928066810743542 -0.035538652588419387 -0.036628177449668266
leaf_weight=16.39562201499939 11.164376601576807 12.132223263382912 4.0540427565574628 6.5420735478401175 9.5841128528118151 17.06599718332291 11.444873794913294 6.6424267888069135 4.7337935715913799 6.5133121013641366 11.179472208023071 90.263189360499382 3.8667235225439063 3.7326475530862799 7.0582859665155402 9.4163637757301313 7.4342283010482779 9.2272348701953888 12.205263569951057 12.716545060276983 19.196164518594742 11.350757747888563 6.7824265956878662 2.8243368715047836 14.946259111166 3.3735769838094711 33.159290909767151 50.870529040694237 3.2157520055770874
leaf_count=21 71 30 31 12 15 54 37 47 19 8 46 170 24 24 29 16 36 39 21 86 26 15 38 16 24 17 34 388 22
internal_value=0.0414878 0.00368782 0.0436875 -0.0105766 0.0607376 0.0405353 -0.0164816 0.0146779 0.0303936 0.0127959 0.0477827 0.0697187 0.0366016 -0.0271224 -0.00151847 0.0486276 0.0353869 0.0728952 0.0500201 -0.0226769 0.0760795 0.0715557 -0.0171749 -0.0232039 0.0686228 -0.0200496 0.0848593 -0.0356672 -0.0359969
internal_weight=419.092 141.41 37.1726 104.238 277.682 85.4553 97.6956 24.8697 69.0597 35.1431 17.6928 192.226 16.8244 72.8258 18.2227 33.9166 24.5002 175.402 21.4325 17.4503 153.969 101.614 13.4249 10.0941 27.0785 7.2403 52.3555 54.6032 7.26979
internal_count=1416 769 123 646 647 286 634 122 265 159 54 361 56 512 100 106 90 305 60 105 245 185 85 69 54 41 60 412 53
is_linear=0
shrinkage=0.03


Tree=8
num_leaves=30
num_cat=0
split_feature=7 9 1 8 5 2 5 7 2 9 0 5 7 7 1 1 1 5 2 9 4 7 5 0 4 1 1 5 0
split_gain=307.355 66.4778 62.96 69.0428 55.547 45.3532 54.26 34.2403 28.586 29.7984 26.2931 53.0884 14.7536 17.865 36.2889 12.4858 14.5117 20.875 4.50368 3.54529 3.32778 3.17169 2.42273 2.26416 0.809365 0.190598 0.0145647 0.00112125 0.00106358
threshold=1568.9695534506102 4.3827844250874772 58.178571428571438 11.874324658052322 10.500000000000002 174.6166666666667 8.5000000000000018 2052.3673883626529 69.933333333333351 31.426993275599798 128.85714285714289 2.5000000000000004 3007.1684709066317 1752.7083897158329 184.03571428571431 207.35714285714289 163.71428571428575 10.500000000000002 143.80000000000004 46.946809175987319 1.5000000000000002 2455.9715832205698 1.5000000000000002 4.5000000000000009 2.5000000000000004 286.75000000000006 65.392857142857153 5.5000000000000009 83.642857142857153
decision_type=2 2 2 2 2 2 2 2 2 2 2 2 2 2 2 2 2 2 2 2 2 2 2 2 2 2 2 2 2
left_child=1 10 23 5 8 6 -4 -6 9 -2 11 -1 13 14 -10 16 18 -18 -12 -11 -7 -9 -15 -3 -17 -26 -5 -13 -28
right_child=4 2 3 26 7 20 -8 21 12 19 15 27 -14 22 -16 24 17 -19 -20 -21 -22 -23 -24 -25 25 -27 28 -29 -30
leaf_value=0.082263769246650895 0.067052059579137568 0.06982286897365747 0.027480786667871002 -0.038158900695002912 0.065768905007720799 -0.00041889841628947881 0.074494495823021381 -0.036272635682510553 -0.025594153710002499 -0.036325801011157843 0.077123764925042915 -0.037728287437263273 0.039486019481573702 -0.015846219354309243 0.074662451581276351 0.075884702997977796 0.027559800406849373 0.080675293632093512 0.05769855599343314 0.0058946105474203874 -0.037495997081803206 0.0055479445460516552 -0.035546994138704595 0.086076026902287342 0.08488921404727108 0.081025620099041476 -0.03624705280258516 -0.036919228383634567 -0.035584297340556015
leaf_weight=7.2905168384313566 7.2664766162633878 14.888097718358042 62.108357205986977 3.3088479191064826 14.456562533974649 3.3699019849300367 34.29314686357975 3.5162273347377768 11.420965000987051 4.2675259187817574 44.065075486898422 3.0314874202013016 3.3526923656463614 6.3731934875249854 4.5413270592689505 19.338248386979103 18.736968874931339 10.331006497144697 14.204504460096357 3.0832176953554153 6.1630478054285049 3.0459663569927216 47.410738363862038 16.008149474859238 26.052751109004021 20.560506090521812 3.5357993394136411 3.1369183510541916 5.6800590455532074
leaf_count=11 17 25 237 20 29 17 57 25 76 30 64 19 13 42 11 25 59 12 30 18 40 16 364 19 28 23 25 21 43
internal_value=0.0396755 0.0546413 0.0401046 0.0301572 -0.00383157 0.0380323 0.0442051 0.0399714 -0.0143277 0.0239707 0.0676617 0.0274584 -0.0219861 -0.024941 0.0029292 0.0711916 0.0637514 0.0464375 0.0723884 -0.0186167 -0.0243892 -0.0168608 -0.0332125 0.0782441 0.0810444 0.083185 -0.0364516 -0.0373168 -0.0358386
internal_weight=424.838 316.103 149.355 118.459 108.735 105.934 96.4015 21.0188 87.7161 14.6172 166.748 13.4589 73.0989 69.7462 15.9623 153.289 87.3376 29.068 58.2696 7.35074 9.53295 6.56219 53.7839 30.8962 65.9515 46.6133 12.5247 6.16841 9.21586
internal_count=1416 775 483 439 641 351 294 70 571 65 292 51 506 493 87 241 165 71 94 48 57 41 406 44 76 51 88 40 68
is_linear=0
shrinkage=0.03


Tree=9
num_leaves=34
num_cat=0
split_feature=7 0 5 2 5 8 0 8 5 5 7 8 5 2 7 5 5 2 2 0 7 4 8 7 3 4 0 8 7 7 7 2 8
split_gain=279.767 59.9906 51.973 41.9382 32.4089 27.545 31.3771 20.3206 66.1672 17.3514 27.9712 16.5181 23.4901 34.1417 20.7298 16.3972 22.2259 15.9361 14.6416 11.2406 4.87045 4.75783 4.04777 3.42649 3.21294 1.71601 1.98807 0.0104314 0.00296216 0.00247455 0.00236961 0.00149185 0.00023737
threshold=1568.9695534506102 157.78571428571431 10.500000000000002 169.23333333333338 11.500000000000002 26.772449043661506 67.214285714285737 9.9630490486779362 7.5000000000000009 8.5000000000000018 1752.7083897158329 2.252065932789558 10.500000000000002 152.30000000000004 1042.5757780784854 3.5000000000000004 8.5000000000000018 63.833333333333336 69.933333333333351 64.785714285714292 1495.2746955345069 1.5000000000000002 38.738497939337783 1324.3673883626527 1.0000000180025095e-35 4.5000000000000009 261.78571428571433 11.874324658052322 2053.8673883626529 1795.1705006765903 2157.1684709066317 193.66666666666671 24.360335008186997
decision_type=2 2 2 2 2 2 2 2 2 2 2 2 2 2 2 2 2 2 2 2 2 2 2 2 2 2 2 2 2 2 2 2 2
left_child=1 3 5 7 -4 9 22 15 20 27 -11 21 13 14 -13 19 -17 -10 -8 -1 -9 -3 30 31 -14 26 -23 29 -12 -2 -7 -5 -29
right_child=2 11 4 23 -6 6 18 8 17 10 28 12 24 -15 -16 16 -18 -19 -20 -21 -22 25 -24 -25 -26 -27 -28 32 -30 -31 -32 -33 -34
leaf_value=0.084358566128257248 -0.036969929980279995 0.057960744313488022 0.062632513209887122 -0.037340304119203492 -0.017810322109815799 -0.036625092234103443 0.072662106646822933 -0.036842406465453066 0.076278276038400705 0.041873554209418101 -0.036321329571638444 0.065536960573157568 0.059744562923735603 -0.021420412484819511 0.014031817914594756 0.025920703172124786 0.06446768991306373 0.029225513080245336 0.012532031375284244 0.052349412371091024 0.0062901225630582862 0.084623834632554684 0.0035295202835099824 0.0019879158066412246 0.079537169368289889 0.070002256769295543 0.072465018289571984 -0.035061258910070593 -0.035145719992777553 -0.035847214093393961 -0.035565100599243581 -0.036400556328631088 -0.03534909642450125
leaf_weight=15.057381495833395 3.1197223067283621 16.318252399563789 14.845473527908327 2.957502141594885 6.4727616906166068 2.8625661730766314 6.8808383047580701 11.219086989760397 12.97450013458729 7.8706997036933926 2.7941349148750287 25.051427990198135 11.194178625941275 7.0255155712366095 9.7780297845602018 39.120170652866364 20.525865405797958 12.938289761543272 7.7490503489971161 28.681564271450043 2.982505574822425 27.132668271660805 3.2305967509746543 3.0769049078226089 21.671667039394379 29.100446283817291 21.849112823605537 33.443111635744572 6.2297606840729713 4.0743247866630554 5.6334700435400009 3.1287346035242081 2.7939643263816825
leaf_count=17 21 28 32 20 38 20 15 77 19 24 20 46 21 35 42 142 40 47 37 69 16 30 18 15 23 39 27 271 50 30 43 22 22
internal_value=0.0380226 0.0520451 -0.00375695 0.0384114 0.038208 -0.0140776 0.0115073 0.0423847 0.0242612 -0.0252558 0.000540886 0.0643519 0.0538137 0.0389084 0.0510774 0.0494168 0.0391858 0.0527848 0.0408129 0.0633687 -0.0277841 0.0726933 -0.0250536 -0.0238133 0.0727958 0.0757722 0.0792002 -0.0352906 -0.0355097 -0.0363341 -0.0359222 -0.0368572 -0.0350835
internal_weight=429.784 321.784 108 152.663 21.3182 86.6822 26.3565 143.499 40.1144 60.3257 16.8946 169.121 74.7208 41.855 34.8295 103.385 59.646 25.9128 14.6299 43.7389 14.2016 94.4005 11.7266 9.16314 32.8658 78.0822 48.9818 43.4311 9.0239 7.19405 8.49604 6.08624 36.2371
internal_count=1416 775 641 484 70 571 133 427 159 438 94 291 167 123 88 268 182 66 52 86 93 124 81 57 44 96 57 344 70 51 63 42 293
is_linear=0
shrinkage=0.03


Tree=10
num_leaves=30
num_cat=0
split_feature=8 1 9 5 5 1 7 5 7 5 7 5 0 5 7 1 1 3 8 1 3 8 3 3 7 8 0 7 3
split_gain=257.105 54.9047 51.254 40.2134 57.1779 33.4953 40.2482 33.4093 51.5014 32.5149 23.2743 52.49 22.0054 47.2152 21.5983 9.92257 12.7028 32.3357 8.91987 4.52959 3.1831 3.10156 0.670916 0.752113 0.0326945 0.0300425 0.0258338 0.0112972 0.00173349
threshold=11.625417804467508 73.857142857142875 4.3827844250874772 11.500000000000002 10.500000000000002 34.607142857142861 1239.4052774018953 9.5000000000000018 1851.6684709066315 3.5000000000000004 1384.1441136671181 4.5000000000000009 128.85714285714289 2.5000000000000004 3028.1840324763198 207.35714285714289 163.71428571428575 0.17325874738735927 6.8708774633686049 62.750000000000007 0.2917532093653426 12.2946052227822 0.039432342248802106 0.31242841820112915 1846.6576454668473 27.206815578724626 167.00000000000003 1942.9208389715834 -0.11650545493202519
decision_type=2 2 2 2 2 2 2 2 2 2 2 2 2 2 2 2 2 2 2 2 2 2 2 2 2 2 2 2 2
left_child=2 9 12 4 5 -4 -7 14 -9 19 -11 -12 13 -1 21 16 20 -18 -5 27 -14 -3 -17 -24 -13 -23 -10 -2 -15
right_child=1 7 3 18 -6 6 -8 8 26 10 11 24 15 28 -16 22 17 -19 -20 -21 -22 25 23 -25 -26 -27 -28 -29 -30
leaf_value=0.074470899054019588 -0.038379318966683743 -0.010023344299467855 0.076971133919096615 0.0092738954791219876 0.082806790006015971 0.037892051480507054 -0.006543764138885382 0.076204966445040143 -0.035846631864383839 0.06978587522854153 0.070289202721544014 -0.03929894006819843 0.054645465648639209 -0.036742841363054377 0.050858511640116059 0.078595122111575669 0.063466990932235096 -0.0028735371240772205 -0.039514375625012303 0.0077627534136925141 0.069929533263279456 -0.03497300277828732 0.064507491491306815 0.073137201993705936 -0.035467074499249261 -0.037223062748147823 -0.039565660292077483 -0.035871230047917306 -0.037752754748053431
leaf_weight=7.6481871306896192 3.250129319727419 4.8122396767139426 13.550157904624937 7.8404016494750959 25.283883422613144 72.270634338259697 24.586156882345676 7.5737135261297208 3.7805662527680397 13.633037343621256 8.2111225873231906 3.5271251350641233 17.050713524222374 2.9246086552739143 2.9108014404773703 14.403890848159788 20.240820676088337 9.8209464102983457 5.9185948073863983 2.9433862864971161 43.679561212658882 43.51238839328289 11.520047083497046 43.078340277075768 4.6406551897525787 6.0878067612648001 3.0269197076559067 3.215321384370327 3.2070339918136597
leaf_count=11 20 29 14 34 27 227 132 11 29 22 20 20 34 20 10 14 33 38 34 17 60 358 15 49 36 40 18 24 20
internal_value=0.0364944 -0.00286678 0.0500353 0.0371569 0.0421122 0.0327929 0.0266125 -0.0185022 0.0223814 0.0255733 0.0408285 0.0167258 0.0611238 0.0247488 -0.028759 0.0642606 0.0577434 0.0417941 -0.011713 -0.0230875 0.0656384 -0.0330182 0.0728358 0.0713164 -0.0371218 -0.0352492 -0.0375003 -0.037132 -0.0372711
internal_weight=434.149 111.125 323.024 149.45 135.691 110.407 96.8568 71.7044 14.3812 39.4208 30.0119 16.3789 173.574 13.7798 57.3232 159.794 90.792 30.0618 13.759 9.40884 60.7303 54.4124 69.0023 54.5984 8.16778 49.6002 6.80749 6.46545 6.13164
internal_count=1416 654 762 468 400 373 359 495 58 159 98 76 294 51 437 243 165 71 68 61 94 427 78 64 56 398 47 44 40
is_linear=0
shrinkage=0.03


Tree=11
num_leaves=30
num_cat=0
split_feature=8 1 9 5 5 5 7 1 7 5 7 5 7 0 5 1 1 3 8 1 8 3 3 3 7 8 0 7 3
split_gain=235.354 51.8889 46.9974 36.9438 51.7542 32.0262 47.571 30.7844 36.8928 30.1743 21.0308 48.3545 20.5338 19.7998 43.6342 9.19566 11.4127 29.5342 8.58625 4.40669 3.09147 2.91507 0.60716 0.775401 0.0292896 0.0270536 0.0232642 0.0101541 0.00154931
threshold=11.625417804467508 73.857142857142875 4.3827844250874772 11.500000000000002 10.500000000000002 9.5000000000000018 1851.6684709066315 34.607142857142861 1239.4052774018953 3.5000000000000004 1384.1441136671181 4.5000000000000009 3028.1840324763198 128.85714285714289 2.5000000000000004 207.35714285714289 163.71428571428575 0.17325874738735927 6.8708774633686049 62.750000000000007 12.2946052227822 0.2917532093653426 0.049279072289107655 0.31242841820112915 1846.6576454668473 27.206815578724626 167.00000000000003 1942.9208389715834 -0.11650545493202519
decision_type=2 2 2 2 2 2 2 2 2 2 2 2 2 2 2 2 2 2 2 2 2 2 2 2 2 2 2 2 2
left_child=2 9 13 4 7 12 -7 -4 -9 19 -11 -12 20 14 -1 16 21 -18 -5 27 -3 -15 -17 -24 -13 -22 -8 -2 -16
right_child=1 5 3 18 -6 6 26 8 -10 10 11 24 -14 15 28 22 17 -19 -20 -21 25 -23 23 -25 -26 -27 -28 -29 -30
leaf_value=0.070561616349169617 -0.03807187352462698 -0.0097839948715301526 0.073404360165964008 0.0089547468328037561 0.078516227433644947 0.072082240156280897 -0.035646098240526197 0.036142201254123242 -0.0063714593250792382 0.066215388130810127 0.066037955363128259 -0.038945738383688269 0.048002206604179934 0.052070901600141974 -0.036502238791045 0.074708909818244559 0.060451655373282981 -0.0027906392175562457 -0.039155250006642203 0.0074922115124810345 -0.034802342107455246 0.066567707644065693 0.06073883046499097 0.069777304705878604 -0.035277542560371342 -0.036962606971280024 -0.039215584158538305 -0.035666281203737001 -0.037468067147686371
leaf_weight=7.8268891125917417 3.1791574582457525 4.7825207188725463 13.778629168868063 7.875690817832945 25.856335252523422 7.7636322826147062 3.6891607046127319 73.477544941008091 24.494919389486313 13.932325705885889 8.4733226150274294 3.4534537941217414 2.9902210086584082 17.352156028151512 2.8565975725650787 15.712783217430113 20.607074946165088 9.8094785362482053 5.7955538704991341 2.9579550698399544 42.43033642321825 44.495834320783615 10.612850695848463 43.786663249135017 4.5273322314023972 5.9488834440708152 2.9632852971553802 3.1379528716206551 3.1355404704809189
leaf_count=11 20 29 14 34 27 11 29 227 132 22 20 20 10 34 20 15 33 38 34 17 358 60 14 49 36 40 18 24 20
internal_value=0.0350971 -0.00281972 0.04786 0.0355947 0.0402676 -0.0182506 0.0216362 0.0314179 0.025513 0.0246358 0.0390926 0.0161267 -0.0284908 0.0583908 0.023918 0.0613246 0.0551012 0.0400557 -0.0114402 -0.022727 -0.0327934 0.0625005 0.0695144 0.068014 -0.0368648 -0.035068 -0.0372361 -0.0368769 -0.0370076
internal_weight=437.704 110.23 327.475 151.279 137.607 70.568 14.4161 111.751 97.9725 39.6615 30.3864 16.4541 56.152 176.196 13.819 162.377 92.2645 30.4166 13.6712 9.27507 53.1617 61.848 70.1123 54.3995 7.98079 48.3792 6.65245 6.31711 5.99214
internal_count=1416 654 762 468 400 495 58 373 359 159 98 76 437 294 51 243 165 71 68 61 427 94 78 63 56 398 47 44 40
is_linear=0
shrinkage=0.03


Tree=12
num_leaves=35
num_cat=0
split_feature=7 7 5 1 0 1 2 1 0 7 5 0 7 2 3 4 3 1 0 0 2 7 5 2 7 0 3 2 7 2 5 3 0 5
split_gain=216.375 61.2546 52.5972 37.8299 36.2029 34.0545 33.3361 22.6024 15.3711 30.8198 18.6793 20.1322 12.9506 11.5119 9.78101 9.11102 22.9519 8.35179 6.8831 6.85729 7.39026 5.42355 5.07286 12.368 35.1609 6.72917 3.28203 0.872752 1.01069 0.0103323 0.00656535 0.00605983 0.00518337 0.00369049
threshold=1974.6441136671181 1087.4208389715834 7.5000000000000009 73.857142857142875 144.07142857142858 58.964285714285722 148.3666666666667 113.75000000000001 93.500000000000014 1428.2347767253052 10.500000000000002 141.78571428571431 3028.1840324763198 69.63333333333334 -0.98026584431331198 1.5000000000000002 0.30860271564926817 30.464285714285719 163.07142857142858 140.6428571428572 189.08333333333334 2661.3673883626529 10.500000000000002 152.30000000000004 63.973612990527734 194.6428571428572 -0.40818472040611337 272.05000000000007 1.0000000180025095e-35 88.933333333333351 9.5000000000000018 -0.37819321467547057 67.214285714285737 10.500000000000002
decision_type=2 2 2 2 2 2 2 2 2 2 2 2 2 2 2 2 2 2 2 2 2 2 2 2 2 2 2 2 2 2 2 2 2 2
left_child=1 4 3 17 5 -1 7 -7 9 14 11 -10 13 -2 -4 16 -5 -3 -12 29 21 -21 23 25 -25 -6 -17 28 -24 32 -11 -8 -15 -31
right_child=12 2 8 15 22 6 31 -9 10 30 18 -13 -14 19 -16 26 -18 -19 -20 20 -22 -23 27 24 -26 -27 -28 -29 -30 33 -32 -33 -34 -35
leaf_value=0.071469420948616968 0.011674352989697776 0.061893372762252846 0.068594168904466374 -0.036238353511397196 0.068538991183042949 0.014722689467091155 -0.03611147203255393 0.050337926534272749 0.046794503894849258 -0.036884026653831774 0.075746497897249854 -0.01786668058203254 0.038364097431448446 -0.035190776634377252 0.020191135391002393 -0.0070371297251232909 0.058722412001650869 0.018063823367313356 0.048868820608045739 -0.035329557900645979 0.023707025415808793 0.014409598300525414 0.062410679286577411 0.06481458826097794 0.0031697403948548059 0.04900091296690532 -0.036336286243026421 0.059370890025096698 0.07124189579264803 -0.034624735127079455 -0.038841740214016665 -0.037889047136901145 -0.03667508042932402 -0.035769377257685205
leaf_weight=18.350149065256119 7.7572687044739714 6.9595986008644095 6.7362428307533273 5.2695348784327525 46.079037770628929 32.362725794315338 3.5733413100242615 31.790743246674538 13.052655048668386 3.0210928097367278 16.856356799602509 6.4874476864933959 3.3536813706159583 4.0948221758007985 8.4965571388602257 4.3021178841590908 4.0522975847125053 8.9377700164914113 17.454776555299759 8.3613732904195768 4.0817607566714278 2.5823664516210547 20.738822400569916 20.600786298513412 13.977470800280569 24.195548102259636 17.189162284135818 16.526870936155319 26.652018755674362 22.945616118609909 3.1483644545078278 3.3387181162834159 4.3848119154572487 2.8499103039503089
leaf_count=20 39 9 9 39 61 125 26 71 36 21 18 38 12 33 33 25 16 39 33 68 17 16 25 26 52 44 126 22 26 199 19 21 30 22
internal_value=0.0338107 0.0421919 0.0246707 -0.00033526 0.0504687 0.035035 0.0256272 0.0323715 0.040192 0.0186851 0.0487396 0.0253265 -0.0189292 -0.0222967 0.0415959 -0.0197274 0.00504208 0.0372517 0.0620733 -0.0276419 -0.0107435 -0.0235927 0.0586455 0.0545846 0.0398961 0.061812 -0.0304712 0.0653071 0.0673772 -0.0350498 -0.0378831 -0.0369701 -0.0359583 -0.0347512
internal_weight=440.562 380.15 121.964 46.7105 258.186 89.4157 71.0655 64.1535 75.2535 21.4023 53.8512 19.5401 60.4116 57.0579 15.2328 30.8131 9.32183 15.8974 34.3111 49.3007 15.0255 10.9437 168.771 104.853 34.5783 70.2746 21.4913 63.9177 47.3908 34.2752 6.16946 6.91206 8.47963 25.7955
internal_count=1416 980 461 254 519 263 243 196 207 82 125 74 436 424 42 206 55 48 51 385 101 84 256 183 78 105 151 73 51 284 40 47 63 221
is_linear=0
shrinkage=0.03


Tree=13
num_leaves=27
num_cat=0
split_feature=7 9 5 5 3 7 7 7 0 5 5 7 8 4 9 8 5 7 4 8 8 7 5 3 8 7
split_gain=200.73 67.4896 36.6578 40.4412 37.9125 55.5888 35.5756 24.7179 19.8843 30.3821 14.3309 23.8694 12.5077 22.9791 16.5216 9.20848 7.95875 22.2385 15.6997 7.17671 1.46161 1.29231 0.0154805 0.0123402 0.00123113 0.000619423
threshold=1974.6441136671181 4.3827844250874772 8.5000000000000018 11.500000000000002 -0.79851368925814958 1013.7746955345067 1942.9208389715834 591.44722598105557 124.92857142857144 2.5000000000000004 10.500000000000002 1249.2083897158329 26.772449043661506 2.5000000000000004 35.807191677376665 11.334323831297818 10.500000000000002 351.21041948579165 2.5000000000000004 6.8708774633686049 1.7318686922385005 1.0000000180025095e-35 10.500000000000002 -0.12455679408928919 13.245144963281843 2791.8125845737495
decision_type=2 2 2 2 2 2 2 2 2 2 2 2 2 2 2 2 2 2 2 2 2 2 2 2 2 2
left_child=1 8 4 10 -3 7 -7 -6 9 -1 11 -4 15 14 -14 -2 17 20 -19 -5 -10 -18 24 -15 -17 -26
right_child=12 2 3 19 5 6 -8 -9 16 -11 -12 -13 13 23 -16 22 21 18 -20 -21 -22 -23 -24 -25 25 -27
leaf_value=0.061838075471428465 0.0062713531363908755 0.06034870938602508 0.061079961690120088 0.0092621031077916461 -0.012607225050448437 -0.019792397376999532 0.06670895198230227 0.041767180088612826 0.056975849395241522 -0.036898160770164772 0.067757240290627879 0.015236779476528564 0.059769453778357746 -0.03530508843863181 -0.011670160167142004 -0.035115962331143051 0.059612235396668094 0.046121312385205622 -0.0034655230786603351 -0.040109624968334971 0.067233841126716917 0.068292639769249833 -0.036451818676706819 -0.037555871567693411 -0.034381893012021943 -0.034881826926941646
leaf_weight=5.9575136452913267 5.7895544692873946 16.45175189524889 23.063149079680443 7.6916660815477353 9.0611243396997434 44.90866057574749 4.7297310456633559 44.362246721982956 64.951983511447906 5.3002081215381622 30.901055216789246 18.358892165124416 6.4886555597186106 4.750427708029747 5.2878463417291641 2.5713871195912388 25.691136106848717 14.122415214776995 9.688901945948599 4.0424044877290726 15.480702519416807 38.669265627861023 4.1323826536536208 4.0710252970457059 23.994377724826339 2.4591099768877021
leaf_count=9 31 23 40 32 41 295 10 119 95 36 34 72 18 38 35 21 31 30 38 22 17 36 30 26 216 21
internal_value=0.0326067 0.0405649 0.0287343 0.0439141 0.0180579 0.011307 -0.0115502 0.0325448 0.053955 0.0153524 0.0522958 0.0407616 -0.0186391 0.000267415 0.0276919 -0.0286383 0.0565325 0.051411 0.0259443 -0.00774653 0.0589502 0.0648276 -0.0347339 -0.0363438 -0.0344893 -0.0344284
internal_weight=442.978 383.433 203.571 84.0572 119.514 103.062 49.6384 53.4234 179.862 11.2577 72.3231 41.422 59.5448 20.598 11.7765 38.9468 168.604 104.244 23.8113 11.7341 80.4327 64.3604 33.1573 8.82145 29.0249 26.4535
internal_count=1416 980 688 200 488 465 305 160 292 45 146 112 436 117 53 319 247 180 68 54 112 67 288 64 258 237
is_linear=0
shrinkage=0.03


Tree=14
num_leaves=30
num_cat=0
split_feature=8 2 8 5 2 1 3 1 3 8 7 7 1 5 1 1 5 7 2 0 3 0 1 1 5 1 1 7 1
split_gain=186.824 58.2278 37.8215 25.3943 36.0189 45.3506 30.0769 21.6143 65.519 15.0232 17.8636 15.608 14.1574 13.501 13.0956 29.5122 11.9797 11.6711 10.5747 38.8415 9.82481 8.64041 16.3782 28.4074 5.31887 2.88302 6.24827 7.30603 0.47248
threshold=11.625417804467508 65.450000000000017 2.986469482805592 8.5000000000000018 141.83333333333334 30.464285714285719 -0.63003245930278939 111.67857142857144 -0.36971047298123422 12.704019068688664 1679.6041948579166 3028.1840324763198 55.428571428571438 6.5000000000000009 73.857142857142875 68.785714285714292 10.500000000000002 1960.9715832205691 202.40000000000001 258.85714285714295 0.082870095641636318 145.92857142857147 85.321428571428584 145.67857142857144 10.500000000000002 141.82142857142858 207.35714285714289 105.90730717185397 227.92857142857147
decision_type=2 2 2 2 2 2 2 2 2 2 2 2 2 2 2 2 2 2 2 2 2 2 2 2 2 2 2 2 2
left_child=2 12 21 4 7 -6 -5 8 -4 10 -3 14 -2 -9 15 -11 -16 -14 24 -20 -7 22 -1 -24 -8 -23 27 -27 -28
right_child=1 9 3 6 5 20 18 13 -10 11 -12 -13 17 -15 16 -17 -18 -19 19 -21 -22 25 23 -25 -26 26 28 -29 -30
leaf_value=0.073661743829321932 0.060064854509111192 0.036464558881234434 0.066680872911251618 -0.018299691964358572 0.066914343966094997 -0.037011026522070473 0.047022457228535139 0.056037396496580336 -0.024470319555602901 -0.026030724226252838 -0.037340503990212062 0.04749635062135777 -0.016154172122688305 0.019699670278167391 -0.034731817560552741 0.060580285242970627 0.017929441884054126 0.049796166377375176 -0.023191283325956557 0.060552508758032558 0.0032977181672357095 0.067999736114907811 -0.023649526064274621 0.060531764483916277 0.064818635405993544 0.055294079942226654 0.065316194385404008 0.026883261103327356 0.059696697689295315
leaf_weight=7.3540210127830532 13.059581749141218 9.7466215342283231 12.395711466670038 6.1219996958971015 6.4732068777084377 15.291430465877058 26.875590085983276 37.396471410989761 16.603521376848221 11.712237603962423 4.2334497794508925 2.9627531468868247 5.5760214477777463 12.205760180950163 47.010673545300961 5.0750128775835028 4.2383493334054938 4.260073646903038 7.4253828600049046 15.164576157927511 8.4490996003150922 20.57052393257618 7.1792039424180967 7.252375416457653 34.541249960660934 24.753819614648819 20.9118692278862 12.142045393586157 37.81771819293499
leaf_count=7 20 31 18 35 6 104 62 76 86 81 31 9 30 38 411 13 16 12 39 22 33 20 37 13 38 36 21 29 42
internal_value=0.0314899 -0.00287073 0.0424913 0.0341205 0.0243659 -0.0034732 0.0458976 0.035067 0.0144922 -0.0143113 0.0141149 -0.0199085 0.0395918 0.0470957 -0.0228438 0.000152955 -0.0303767 0.0124093 0.0505759 0.0330257 -0.0226654 0.0545605 0.037223 0.0186545 0.0570311 0.0578112 0.0556194 0.0459444 0.0616976
internal_weight=444.8 107.875 336.926 198.944 108.815 30.2137 90.1288 78.6015 28.9992 84.9791 13.9801 70.999 22.8957 49.6022 68.0363 16.7873 51.249 9.8361 84.0068 22.59 23.7405 137.982 21.7856 14.4316 61.4168 116.196 95.6255 36.8959 58.7296
internal_count=1416 654 762 557 361 143 196 218 104 592 62 530 62 114 521 94 427 42 161 61 137 205 57 50 100 148 128 65 63
is_linear=0
shrinkage=0.03


Tree=15
num_leaves=28
num_cat=0
split_feature=7 9 1 2 3 4 0 0 7 2 7 2 1 1 3 0 0 7 1 2 2 3 7 1 2 0 2
split_gain=175.298 58.0345 31.022 37.7899 32.7605 25.7436 18.4395 17.1098 16.9015 15.9568 11.16 10.5405 8.29726 10.1476 24.7664 6.71592 9.3607 6.60783 6.02238 4.42613 4.36102 4.26937 0.664845 0.543717 0.0105718 0.00513718 0.00206315
threshold=1974.6441136671181 4.3827844250874772 55.428571428571438 118.30000000000001 -0.43349709122060376 2.5000000000000004 203.21428571428575 124.92857142857144 1942.9208389715834 101.55000000000001 3028.1840324763198 69.63333333333334 207.35714285714289 163.71428571428575 0.17325874738735927 140.6428571428572 151.35714285714286 1302.3809201623819 94.964285714285737 143.80000000000004 215.8666666666667 0.42663593096233804 26.170500676590112 227.92857142857147 88.933333333333351 67.214285714285737 182.93333333333337
decision_type=2 2 2 2 2 2 2 2 2 2 2 2 2 2 2 2 2 2 2 2 2 2 2 2 2 2 2
left_child=1 7 17 5 18 21 -6 9 -7 -1 11 -2 13 19 -15 24 -17 -3 -5 -9 -18 -4 23 -14 25 -13 -26
right_child=10 2 3 4 6 8 -8 12 -10 -11 -12 15 22 14 -16 16 20 -19 -20 -21 -22 -23 -24 -25 26 -27 -28
leaf_value=0.05197591721878414 0.010702852740771596 0.064542831691655672 -0.038136697073379903 0.005460412001355313 0.039196258045011534 0.0061236650857195846 -0.0076634336683491233 0.057668340595301057 0.068264891668276845 -0.019582041702587337 0.033585362340154017 -0.034789012972296342 0.061597812543359894 0.050963615974281673 -0.0058303909396362763 0.031555128388093802 -0.034991482070570706 0.038456840012024769 -0.037061837283326571 0.039641382905555508 0.008623340253124015 0.0011152787510590281 0.06327484218260436 0.054476699936756197 -0.034212037888666426 -0.036305333905824529 -0.035019623602891882
leaf_weight=5.3129869699478132 7.8059696182608596 18.856326460838318 13.633539430797102 5.7969214394688588 100.91233061999083 28.011253163218498 8.1695946827530843 51.115734592080116 4.5838106572628012 5.9404145702719688 3.5159841179847708 3.8596606403589231 16.751605063676834 21.563537687063221 10.169259920716284 3.6450703442096701 8.1615322679281217 16.289201647043228 6.2076498344540596 16.124982908368111 2.7614065110683432 3.0522647500038138 32.776672676205635 22.761923044919968 20.69822666049004 4.1980534717440605 3.3011250495910636
leaf_count=12 39 20 89 30 271 134 40 67 8 33 12 33 17 33 38 18 70 38 42 33 13 16 31 28 194 30 27
internal_value=0.0304555 0.0377239 0.0267903 0.0214963 0.0305101 -0.000651149 0.0356867 0.0500351 0.0148625 0.0142021 -0.0182156 -0.0215616 0.0523896 0.0467463 0.0327631 -0.0269634 -0.0100735 0.0524525 -0.0165281 0.0533453 -0.0239653 -0.0309565 0.060116 0.0574957 -0.0346388 -0.035579 -0.0343231
internal_weight=445.977 388.03 205.513 170.367 121.086 49.2809 109.082 182.517 32.5951 11.2534 57.947 54.431 171.264 98.9735 31.7328 46.6251 14.568 35.1455 12.0046 67.2407 10.9229 16.6858 72.2902 39.5135 32.0571 8.05771 23.9994
internal_count=1416 980 688 630 383 247 311 292 142 45 436 424 247 171 71 385 101 58 72 100 83 105 76 45 284 63 221
is_linear=0
shrinkage=0.03


Tree=16
num_leaves=28
num_cat=0
split_feature=7 9 5 5 3 7 7 7 5 7 5 7 2 8 4 9 4 8 8 9 8 2 7 5 3 8 7
split_gain=163.319 54.4297 30.7125 33.8692 32.0904 49.1493 30.96 21.7199 12.6765 20.0461 11.621 25.9044 16.3792 11.585 21.3245 14.0989 10.7476 8.69431 6.92095 4.00048 14.1404 1.41687 1.31059 0.0140552 0.0108707 0.0010652 0.00103197
threshold=1974.6441136671181 4.3827844250874772 8.5000000000000018 11.500000000000002 -0.79851368925814958 1013.7746955345067 1942.9208389715834 591.44722598105557 10.500000000000002 1249.2083897158329 10.500000000000002 351.21041948579165 150.1166666666667 26.772449043661506 2.5000000000000004 35.807191677376665 2.5000000000000004 11.334323831297818 6.8708774633686049 0.53637391814020641 2.0293669615625105 177.00000000000003 1.0000000180025095e-35 10.500000000000002 -0.15102565396307241 13.245144963281843 2804.945196211097
decision_type=2 2 2 2 2 2 2 2 2 2 2 2 2 2 2 2 2 2 2 2 2 2 2 2 2 2 2
left_child=1 10 4 8 -3 7 -7 -6 9 -4 11 19 16 17 15 -15 -13 -2 -5 21 -21 -1 -12 25 -16 -19 -27
right_child=13 2 3 18 5 6 -8 -9 -10 -11 22 12 -14 14 24 -17 -18 23 -20 20 -22 -23 -24 -25 -26 26 -28
leaf_value=0.052027537252720767 0.005743216970442052 0.054605308447799164 0.054560643656124751 0.0086927032232091434 -0.012997293767048499 -0.019745528030278597 0.059377771721776829 0.037886076645454916 0.061405226881980295 0.013124158081096312 0.053222993679913087 0.048649828975786243 -0.022528404684050946 0.054704132295909029 -0.035022395539066976 -0.011132074269867186 0.0034943103689857682 -0.034692729590806035 -0.039987921994740362 0.023538298330409723 0.061070655103225929 0.062296705275775736 0.061894936736952129 -0.036011134602901347 -0.037167868894271865 -0.033971567877474886 -0.034666125114639158
leaf_weight=37.232312113046646 5.7832051441073409 16.754425764083862 23.889469876885414 7.6916384100913984 9.0471886098384839 44.445799827575684 4.9460561648011199 45.623493105173111 31.602874994277954 18.758554875850677 26.150110200047493 11.953291177749639 7.0446541160345069 6.7333047613501567 4.1841779500246048 5.1793884560465813 7.8653651922941199 2.4039445593953195 3.9928999915719032 17.862665303051472 18.279270648956299 17.908307909965515 39.191774368286133 3.9261296167969695 4.3198813423514348 22.474141374230388 2.1056541875004759
leaf_count=51 31 23 40 32 41 295 10 119 34 72 31 22 35 18 35 35 27 21 22 48 23 19 36 30 29 218 19
internal_value=0.0294449 0.0363792 0.0258244 0.0395342 0.0160728 0.00986893 -0.0118222 0.0294656 0.0470054 0.036335 0.0482723 0.0426576 0.0167628 -0.0179385 0.000175422 0.0260799 0.0307291 -0.0280174 -0.00794269 0.0502781 0.0425208 0.0553627 0.0584244 -0.034334 -0.0361123 -0.03409 -0.0340311
internal_weight=447.35 390.24 206.752 85.9354 120.817 104.063 49.3919 54.6707 74.2509 42.648 183.488 118.146 26.8633 57.1098 20.4168 11.9127 19.8187 36.6931 11.6845 91.2826 36.1419 55.1406 65.3419 30.9099 8.50406 26.9837 24.5798
internal_count=1416 980 688 200 488 465 305 160 146 112 292 225 84 436 117 53 49 319 54 141 71 70 67 288 64 258 237
is_linear=0
shrinkage=0.03


Tree=17
num_leaves=28
num_cat=0
split_feature=8 2 0 1 2 1 3 8 8 7 8 8 1 1 1 7 8 4 7 1 4 2 2 2 3 8 3
split_gain=153.033 49.6134 31.4278 20.3984 33.4321 18.5769 17.1268 18.566 13.5958 13.8191 12.7168 19.2364 12.2284 25.8486 11.8378 10.6702 15.651 11.3488 10.2831 9.21856 15.3839 8.80804 4.17629 10.641 4.27762 2.82271 0.0213224
threshold=11.625417804467508 65.450000000000017 135.21428571428575 40.642857142857146 148.3666666666667 176.17857142857147 -0.084968871819449079 9.1269436455630863 12.704019068688664 3028.1840324763198 8.3716180570321708 2.986469482805592 73.857142857142875 68.785714285714292 55.428571428571438 637.8673883626526 3.7428653865800023 2.5000000000000004 1960.9715832205691 194.67857142857147 1.5000000000000002 137.05000000000004 144.1166666666667 160.10000000000002 0.082870095641636318 14.15178013045932 -0.45407360654743129
decision_type=2 2 2 2 2 2 2 2 2 2 2 2 2 2 2 2 2 2 2 2 2 2 2 2 2 2 2
left_child=2 14 3 -1 15 26 10 22 21 12 11 -4 13 -10 -2 16 -5 -17 -16 20 -9 -3 24 -24 -8 -14 -6
right_child=1 8 6 4 5 -7 7 19 9 -11 -12 -13 25 -15 18 17 -18 -19 -20 -21 -22 -23 23 -25 -26 -27 -28
leaf_value=0.053570338764490757 0.054066628098394375 0.032053961429792235 0.038020584258668937 0.033661930557109802 -0.035484556773219593 0.032551310770200736 0.07546158926398909 0.03578320478508179 -0.025704511651319723 0.042513698854383858 0.050976659765967991 -0.038107277538736432 -0.01823353485568411 0.054581642384492673 -0.016331480752999901 0.017201578687246807 -0.010768379672611995 0.048024687733694706 0.045090505437958804 0.045537362567339305 -0.038728642178141939 -0.016738850853757991 0.031150639207806405 0.051409184809770324 0.052650299472459527 -0.034431824160131033 -0.038029163216848176
leaf_weight=19.058455243706703 13.360955670475962 8.5237343162298185 5.7675832509994525 16.003754839301113 8.263564221560955 4.8373522460460654 8.3483992815017682 4.9539992809295637 11.365855105221273 3.0912814140319815 6.4020099863409987 6.1970507726073265 13.337243899703024 5.2883575409650794 5.5457933992147428 16.707879081368446 12.876896545290945 30.152480885386467 4.3989709168672562 5.9175550192594519 5.0215999484062195 5.4643442854285231 31.436934098601341 90.544456914067268 65.024867758154869 35.329151436686516 4.6210608333349237
leaf_count=25 20 28 11 41 64 16 8 16 81 9 12 38 101 13 30 53 58 63 12 18 31 34 67 121 91 326 29
internal_value=0.0285248 -0.0030254 0.0382725 0.0252839 0.0195159 -0.0175771 0.0446375 0.0470534 -0.0139559 -0.0194662 0.0168505 -0.00140964 -0.0223993 -0.000210548 0.0356206 0.028195 0.013852 0.0370348 0.0108379 0.0158722 -0.00172519 0.0129934 0.0495901 0.0461882 0.0552458 -0.0299926 -0.0363972
internal_weight=447.842 105.706 342.136 112.521 93.463 17.722 229.614 211.248 82.4 68.4119 18.3666 11.9646 65.3206 16.6542 23.3057 75.741 28.8807 46.8604 9.94476 15.8932 9.9756 13.9881 195.355 121.981 73.3733 48.6664 12.8846
internal_count=1416 654 762 349 324 109 413 352 592 530 61 49 521 94 62 215 99 116 42 65 47 62 287 188 99 427 93
is_linear=0
shrinkage=0.03


Tree=18
num_leaves=31
num_cat=0
split_feature=8 2 9 5 2 1 3 1 1 5 9 8 8 4 0 1 3 3 2 4 3 5 5 9 3 4 1 9 8 0
split_gain=142.367 46.7381 29.6762 23.979 61.1811 41.8215 34.9612 14.016 63.8369 13.2857 22.061 15.9188 18.408 12.1571 11.189 11.021 8.69323 8.27626 5.04398 4.70738 4.43999 4.62078 4.38337 4.84586 3.7091 2.45489 3.20917 0.0248391 0.0138611 0.00693362
threshold=11.625417804467508 65.450000000000017 1.9250476430035535 10.500000000000002 152.30000000000004 30.464285714285719 -0.32493899836658685 111.67857142857144 92.821428571428584 9.5000000000000018 16.482614204964541 26.772449043661506 32.424204000460186 2.5000000000000004 181.21428571428575 55.428571428571438 0.099316352319244808 -0.17021281432769916 204.10000000000005 1.5000000000000002 -0.40373499727422829 5.5000000000000009 11.500000000000002 3.5693182138865613 0.24422674450852402 3.5000000000000004 207.35714285714289 28.828442941892728 12.658258797129278 61.071428571428577
decision_type=2 2 2 2 2 2 2 2 2 2 2 2 2 2 2 2 2 2 2 2 2 2 2 2 2 2 2 2 2 2
left_child=2 15 17 4 7 -6 18 8 -4 11 -11 20 13 -13 -9 -2 -17 -1 -5 -19 21 -3 -8 -24 -7 -21 -27 -12 -22 -14
right_child=1 9 3 6 5 24 22 14 -10 10 27 12 29 -15 -16 16 -18 19 -20 25 28 -23 23 -25 -26 26 -28 -29 -30 -31
leaf_value=-0.038576168474214564 0.052097801169099733 -0.035615954422620874 0.041320546900398714 0.0094238345537063783 0.059616837503833689 -0.037649568433586668 0.061217312375851388 0.044724614718605032 -0.038943193940951956 0.035142842477841954 -0.03797446176560116 0.052133375899364981 -0.035116433543686897 -0.010685979448862393 0.012485210802341223 -0.014706055391960552 0.041632202384736673 0.035113822847474788 -0.037018106906597348 0.058415011257090844 -0.036094512972924209 0.0056584034058683027 0.059454057209062404 0.032677608042590976 -0.0044892160380653355 0.042606519402793218 0.055857642314962611 -0.034128027474454606 -0.034030426258456453 -0.03712045664908202
leaf_weight=0.96384600549936195 13.448495268821718 4.2042993605136854 32.930340111255646 4.7915880158543569 5.4517080783844021 19.942262664437298 32.917846113443375 71.579914703965187 12.230376735329626 11.013972401618959 2.6775626167654982 6.8576703593134898 2.551538221538066 4.6543538942933083 11.205245867371557 5.5143899098038656 4.4576056525111198 17.093291103839874 3.7534413933753967 36.100898936390877 3.21373077481985 5.8210911378264427 10.885918140411379 13.786528453230856 3.580913394689559 35.822971805930138 30.413458079099655 3.4680764228105545 32.944779023528099 3.9736087694764137
leaf_count=6 20 37 73 19 5 134 32 146 72 30 19 20 21 30 38 30 12 29 26 38 24 31 10 31 16 56 31 33 320 27
internal_value=0.027638 -0.00296852 0.0369773 0.0304986 0.0241129 -0.0152504 0.04565 0.0330272 0.0195836 -0.0137161 0.00973359 -0.0199818 0.00391825 0.0267353 0.0403609 0.0343768 0.0104778 0.0489805 -0.010976 0.0496871 -0.029316 -0.0116506 0.0540519 0.0444918 -0.0326016 0.0521213 0.048691 -0.0358039 -0.0342139 -0.0363368
internal_weight=448.252 104.801 343.451 223.056 156.921 28.9749 66.1353 127.946 45.1607 81.3807 17.1596 64.2211 18.0372 11.512 82.7852 23.4205 9.972 120.394 8.54503 119.431 46.1839 10.0254 57.5903 24.6724 23.5232 102.337 66.2364 6.14564 36.1585 6.52515
internal_count=1416 654 762 602 484 155 118 329 145 592 82 510 98 50 184 62 42 160 45 154 412 68 73 41 150 125 87 52 344 48
is_linear=0
shrinkage=0.03


Tree=19
num_leaves=32
num_cat=0
split_feature=8 2 0 1 2 1 3 8 5 5 2 8 8 5 5 4 4 1 8 3 8 5 2 3 4 2 8 8 3 8 0
split_gain=132.81 44.0982 28.4926 18.8405 28.962 17.19 14.9893 17.1824 13.4649 12.7358 21.282 15.4625 17.4545 12.676 11.4329 11.1208 10.4417 10.2757 9.3213 18.8795 8.23282 4.72855 13.336 4.42634 4.56777 2.23414 1.08853 0.0419589 0.0189342 0.0125308 0.00625051
threshold=11.625417804467508 65.450000000000017 135.21428571428575 40.642857142857146 148.3666666666667 176.17857142857147 -0.066615488686093641 9.1269436455630863 8.5000000000000018 9.5000000000000018 140.50000000000003 26.772449043661506 32.424204000460186 8.5000000000000018 6.5000000000000009 2.5000000000000004 1.5000000000000002 55.428571428571438 8.3716180570321708 -0.17021281432769916 31.375308313225098 10.500000000000002 144.1166666666667 -0.40373499727422829 3.5000000000000004 134.4666666666667 1.0000000180025095e-35 13.935488715354838 -0.45407360654743129 12.658258797129278 61.071428571428577
decision_type=2 2 2 2 2 2 2 2 2 2 2 2 2 2 2 2 2 2 2 2 2 2 2 2 2 2 2 2 2 2 2
left_child=2 17 3 -1 13 28 18 21 16 11 -11 23 15 14 -5 -13 -9 -2 19 -4 -19 22 -8 24 -3 -15 -23 -12 -6 -25 -14
right_child=1 9 6 4 5 -7 7 8 -10 10 27 12 30 25 -16 -17 -18 20 -20 -21 -22 26 -24 29 -26 -27 -28 -29 -30 -31 -32
leaf_value=0.050638470366240439 0.050277039918900784 -0.035365970404907812 -0.03812850024525552 0.025044383388134254 -0.035147733130323537 0.030622473306108948 0.051811491491040092 0.027475756399829541 0.045765633108477158 0.033534317095494579 -0.039568792671712837 0.049512798083690392 -0.034941422263553262 0.055406812525074824 -0.0087425377194302861 -0.010431046268246903 -0.037395649346207691 -0.015624844938791115 0.046042008696991259 0.034066603335601818 0.038942555321152102 0.047038208432676983 0.031808591348919099 -0.035882861898678668 0.0058566246001643518 0.036480453789180828 0.05506245827918612 -0.034483363690631014 -0.037594830014698592 -0.033896260862091888 -0.036867494677485645
leaf_weight=19.105903312563896 13.516364052891733 4.1619636788964254 5.807266093790532 42.497640699148178 7.9001220315694818 4.8505650535225859 68.370273381471634 3.907455116510393 6.9798852354288092 11.275301307439806 2.9144992381334296 7.0017237812280673 2.4883433282375327 9.7179426997900027 11.440117582678793 4.6255056709051132 5.2113675177097321 5.2689647376537305 6.6002769768238059 7.4321497678756723 4.7154213264584541 21.605444952845573 53.44682015478611 3.1368676498532286 5.7775144875049591 13.289762139320372 51.440839990973473 2.9263066649436951 4.4478403627872476 32.095745235681534 3.8822284638881683
leaf_count=25 20 37 36 126 64 16 93 15 16 35 20 20 21 15 48 30 34 28 13 16 14 26 110 24 31 26 54 27 29 320 27
internal_value=0.0268282 -0.00291699 0.0358012 0.0234765 0.0179642 -0.0172312 0.0418487 0.0441932 0.0144059 -0.0134969 0.00945761 -0.0197165 0.00379779 0.0258309 0.0178782 0.0256661 -0.00959797 0.0332273 0.0169184 0.00239933 0.0101462 0.0466541 0.0430353 -0.0290852 -0.0114045 0.0444745 0.0526891 -0.0370209 -0.0360292 -0.0340731 -0.0361152
internal_weight=447.838 103.787 344.052 113.25 94.144 17.1985 230.802 210.962 16.0987 80.286 17.1161 63.1699 17.9978 76.9455 53.9378 11.6272 9.11882 23.5008 19.8397 13.2394 9.98439 194.863 121.817 45.1721 9.93948 23.0077 73.0463 5.84081 12.348 35.2326 6.37057
internal_count=1416 654 762 349 324 109 413 348 65 592 82 510 98 215 174 50 49 62 65 52 42 283 203 412 68 41 80 47 93 344 48
is_linear=0
shrinkage=0.03


Tree=20
num_leaves=31
num_cat=0
split_feature=7 8 5 8 8 2 0 5 0 2 8 4 0 5 2 0 8 0 5 5 4 4 0 2 8 5 8 0 8 7
split_gain=128.743 40.4609 34.2052 25.0356 35.035 20.9109 25.7148 19.9098 16.1143 10.7187 10.2435 18.7875 10.0674 9.51456 13.0097 7.83509 7.74384 6.6451 8.48984 5.15698 2.0846 2.2622 3.30583 1.82736 1.09134 0.0132752 0.00884812 0.00588175 0.00140529 0.00106251
threshold=1974.6441136671181 2.986469482805592 8.5000000000000018 10.092958191533663 18.404939576433559 141.83333333333334 44.142857142857153 6.5000000000000009 42.857142857142868 124.10000000000001 26.772449043661506 2.5000000000000004 71.071428571428584 10.500000000000002 147.78333333333336 34.142857142857146 11.334323831297818 145.92857142857147 2.5000000000000004 11.500000000000002 1.5000000000000002 4.5000000000000009 247.00000000000003 141.83333333333334 0.16536552761820009 10.500000000000002 38.738497939337783 77.000000000000014 13.277684343206317 2804.945196211097
decision_type=2 2 2 2 2 2 2 2 2 2 2 2 2 2 2 2 2 2 2 2 2 2 2 2 2 2 2 2 2 2
left_child=1 17 3 5 9 7 -7 -3 -4 -5 16 12 -12 14 -10 -6 -2 18 -1 -15 -19 24 -23 -20 -22 28 27 -13 -18 -30
right_child=10 2 8 4 15 6 -8 -9 13 -11 11 26 -14 19 -16 -17 25 20 23 -21 21 22 -24 -25 -26 -27 -28 -29 29 -31
leaf_value=0.05416132302514795 0.0040751005128544862 0.039608981474058932 -0.0064384821412236818 -0.036135012452809284 0.063449506608870165 0.047498163159763046 -0.019421189859667797 0.00206369192766697 0.038399745514548611 0.0021582844371867619 -0.0098518799010930587 -0.034313006735563596 0.045731256439126879 0.055111176630014268 -0.0012457134331087757 0.017252393054251934 -0.034320031931232252 0.039532027461863385 0.0051208024754053789 0.036492781970990366 0.056331203748047995 0.034068088419226712 0.052269895193735837 0.026649832794863826 0.047905014843503978 -0.035552316967184777 -0.037313705931448823 -0.036265114531323854 -0.033483634604853652 -0.03422256379721951
leaf_weight=8.2399877309799212 5.8442941233515731 58.13091453909874 7.0568624734878531 18.898908771574501 5.3762930631637564 7.2505585625767734 17.99260675907135 16.269185438752174 35.196353249251842 10.091503284871576 4.9356869384646433 3.2431018650531751 7.2269439101219177 37.263533681631088 9.4494752734899503 8.5726653635501844 2.3456033170223298 22.503923505544662 7.101615294814108 20.898043125867844 37.966540217399597 16.890112727880478 19.176231637597084 7.0915072336792946 21.763876184821129 3.6897778511047354 2.4266803711652756 2.4299498572945595 20.185299597680572 1.9177342727780331
leaf_count=10 31 123 33 150 5 11 96 57 78 65 34 30 19 39 41 36 22 34 24 41 38 28 20 23 28 30 16 18 217 19
internal_value=0.0260432 0.0320205 0.024835 0.0151415 -0.00400821 0.0233938 -0.000200039 0.0313989 0.0374152 -0.0228052 -0.0172818 -0.000398769 0.0231752 0.0404253 0.0300086 0.035058 -0.0273484 0.0449098 0.0299398 0.0484214 0.0477485 0.0496786 0.0437459 0.0158777 0.053261 -0.033875 -0.0357977 -0.0351492 -0.0336218 -0.0335477
internal_weight=447.426 393.181 252.447 142.583 42.9394 99.6433 25.2432 74.4001 109.864 28.9904 54.2451 20.2624 12.1626 102.807 44.6458 13.949 33.9827 140.734 22.4331 58.1616 118.301 95.7968 36.0663 14.1931 59.7304 28.1384 8.09973 5.67305 24.4486 22.103
internal_count=1416 980 775 543 256 287 107 180 232 215 436 117 53 199 119 41 319 205 57 80 148 114 48 47 66 288 64 48 258 236
is_linear=0
shrinkage=0.03


Tree=21
num_leaves=32
num_cat=0
split_feature=7 9 5 1 7 1 7 5 1 3 5 7 4 3 9 2 7 5 7 4 1 7 1 2 2 7 2 7 3 9 3
split_gain=120.78 40.7402 23.3479 41.3617 35.9799 39.8079 28.7441 27.9027 11.9168 21.5704 10.4343 15.8274 9.28939 13.7731 15.458 10.5683 7.74491 12.435 6.41922 4.5146 3.76192 0.756095 0.518464 0.0142717 0.00813637 0.00480854 0.00243109 0.00220777 0.000533739 0.000204011 0.000105703
threshold=1974.6441136671181 4.3827844250874772 8.5000000000000018 34.607142857142861 1013.7746955345067 111.67857142857144 1942.9208389715834 11.500000000000002 207.35714285714289 -0.12124546757253349 10.500000000000002 1249.2083897158329 3.5000000000000004 -0.24016687895014938 28.828442941892728 189.08333333333334 351.21041948579165 10.500000000000002 2661.3673883626529 1.5000000000000002 152.39285714285717 26.170500676590112 227.92857142857147 77.616666666666688 181.05000000000004 2804.945196211097 106.81666666666668 2355.9208389715836 -0.46611713739869137 42.596430845312078 -0.0050841731991382996
decision_type=2 2 2 2 2 2 2 2 2 2 2 2 2 2 2 2 2 2 2 2 2 2 2 2 2 2 2 2 2 2 2
left_child=1 8 3 -3 5 -5 -6 10 9 -1 11 -4 13 25 15 18 20 -18 -15 -9 -11 22 -10 -14 26 27 -25 28 -2 -29 -28
right_child=12 2 7 4 6 -7 -8 19 21 16 -12 -13 23 14 -16 -17 17 -19 -20 -21 -22 -23 -24 24 -26 -27 30 29 -30 -31 -32
leaf_value=-0.021228183937994444 -0.034345022659642357 0.052192629966247225 0.046883464294326875 -0.013297199258060699 -0.021604589685981182 0.041282690702109895 0.053900880570882957 0.014714115805681341 0.05203420989770715 0.048706456395586711 0.053525136427436122 0.010480518560989263 -0.035996250000325934 -0.034161167829209679 0.039582467691141994 0.036499417591852552 0.015890490049874653 0.055695528645043291 0.023245990892896692 -0.023709136639078861 0.034002511852941938 0.05419207668593419 0.045088752780498481 -0.034356521333736977 -0.035774298448295383 -0.035802338387769951 -0.033350881153453249 -0.033502369700894513 -0.034932712169756186 -0.033928453239518104 -0.033589711624811155
leaf_weight=5.7848615422844878 2.8213913291692725 20.565519616007805 24.549124091863632 18.370091862976551 42.313900582492352 34.82854762673378 5.0827585309743872 4.409952796995638 16.748510971665382 48.286684095859528 31.84584242105484 19.12233379483223 4.5428637638688114 10.39167667925358 7.8361409008502951 3.2163888141512862 25.780818924307823 9.7289053201675397 2.1087906360626212 7.3211130797863007 23.175853833556175 32.568209186196327 22.896835088729858 3.8096523880958539 2.0884395018219939 2.1982208043336859 5.1474579870700836 2.0387377217411995 2.7430475428700438 2.0069530159235001 2.4672459736466408
leaf_count=31 26 24 40 86 297 71 10 16 17 63 34 72 35 105 27 10 73 9 12 38 40 31 28 37 17 18 57 22 24 20 26
internal_value=0.0252945 0.0310422 0.0219469 0.013426 0.00550062 0.0224356 -0.0135075 0.0337797 0.0412901 0.0351963 0.0404664 0.0309438 -0.0170337 -0.00809416 0.00516279 -0.0119982 0.0382476 0.0267962 -0.0244768 -0.00926503 0.0439379 0.0508052 0.0480229 -0.0345416 -0.0340526 -0.0345365 -0.0337378 -0.034247 -0.0346347 -0.0337137 -0.0334283
internal_weight=446.797 393.38 208.409 121.161 100.595 53.1986 47.3967 87.2484 184.971 112.757 75.5173 43.6715 53.417 35.3613 23.553 15.7169 106.972 35.5097 12.5005 11.7311 71.4625 72.2136 39.6453 18.0557 13.5128 11.8084 11.4244 9.61013 5.56444 4.04569 7.6147
internal_count=1416 980 688 488 464 157 307 200 292 216 146 112 436 264 154 127 185 82 117 54 103 76 45 172 137 110 120 92 50 42 83
is_linear=0
shrinkage=0.03


Tree=22
num_leaves=29
num_cat=0
split_feature=7 9 1 8 8 7 2 1 3 8 4 9 8 7 8 2 7 4 2 7 1 8 3 8 3 4 1 9
split_gain=113.574 38.4469 22.4279 29.6584 26.8372 22.18 22.8872 11.5543 20.2291 9.74792 17.3063 9.78027 8.02603 10.1688 7.50976 5.80113 5.48718 3.35341 2.38387 0.739206 0.502307 0.00755016 0.004879 0.00448062 0.00115874 0.00114194 0.00121204 0.0001349
threshold=1974.6441136671181 4.3827844250874772 55.428571428571438 12.704019068688664 27.681710714018902 591.44722598105557 202.40000000000001 207.35714285714289 -0.12124546757253349 26.772449043661506 2.5000000000000004 35.807191677376665 2.986469482805592 622.2347767253051 11.334323831297818 122.10000000000001 1302.3809201623819 3.5000000000000004 118.30000000000001 26.170500676590112 227.92857142857147 38.738497939337783 -0.026140012000281498 13.695441209062031 -0.15719920515891186 1.5000000000000002 151.75000000000003 15.274580189086572
decision_type=2 2 2 2 2 2 2 2 2 2 2 2 2 2 2 2 2 2 2 2 2 2 2 2 2 2 2 2
left_child=1 7 16 5 15 18 -7 8 -1 14 11 -11 17 -14 -2 -5 -3 -10 -4 20 -9 22 -12 24 -16 26 -25 -27
right_child=9 2 3 4 -6 6 -8 19 12 10 21 -13 13 -15 23 -17 -18 -19 -20 -21 -22 -23 -24 25 -26 27 -28 -29
leaf_value=-0.020787760091952063 0.0039689837958885171 0.053962960667177179 -0.040336401894423814 -0.035405294761716943 0.04915329364991794 0.028299680022771737 -0.023184612856318607 0.05071949550130124 0.048462692486411718 0.044150771792702555 -0.034038414020588603 -0.01031552921831699 0.0074984570791814488 0.041666982542792816 -0.034070615177644994 -0.0013706803669345576 0.030328384672276235 0.035828754342186422 -0.0081805197148237391 0.052874928326584823 0.043869300314433715 -0.036861776785886084 -0.035858334440424418 -0.033474166284510699 -0.035021596271623427 -0.033478548014607451 -0.034255583892253069 -0.033250428200654582
leaf_weight=5.7310247793793669 5.8183429241180411 19.073881387710571 4.4199164360761625 16.183717764914043 5.2966265082359305 128.28328835964203 8.2722928524017316 16.668351352214813 39.081331625580788 7.244874835014345 3.0873603671789178 5.0252076908946037 15.939290210604669 15.425133317708967 2.696283370256424 6.2471407279372206 16.479078948497772 36.631029039621353 3.9109148234128952 32.380882084369659 22.828305974602699 2.3324199318885803 2.3235441967844945 5.0838235616683987 2.014879576861861 2.9426265582442275 2.7543279156088829 11.26297866553068
leaf_count=31 31 20 24 139 11 354 48 17 51 18 30 35 50 25 27 37 38 59 17 31 28 16 18 56 18 32 27 128
internal_value=0.0246083 0.0301506 0.0213106 0.0168417 -0.0115844 0.0222817 0.0251809 0.0401144 0.0341247 -0.0167957 -0.000317551 0.0218441 0.0370638 0.0243027 -0.0269201 -0.0259264 0.0430081 0.0423502 -0.0252408 0.0495149 0.0467602 -0.035435 -0.0348199 -0.0336375 -0.0344773 -0.0334581 -0.0337488 -0.0332977
internal_weight=445.439 392.852 208.167 172.614 27.7275 144.886 136.556 184.685 112.808 52.5867 20.0134 12.2701 107.077 31.3644 32.5733 22.4309 35.553 75.7124 8.33083 71.8775 39.4967 7.74332 5.4109 26.7549 4.71116 22.0438 7.83815 14.2056
internal_count=1416 980 688 630 187 443 402 292 216 436 117 53 185 75 319 176 58 110 41 76 45 64 48 288 45 243 83 160
is_linear=0
shrinkage=0.03


Tree=23
num_leaves=29
num_cat=0
split_feature=7 9 5 5 0 7 7 0 0 5 5 7 8 4 9 5 8 8 5 7 2 2 7 5 8 0 8 7
split_gain=106.657 36.6306 21.8902 25.4826 23.1142 26.8074 24.8613 17.997 13.3133 23.4333 10.0183 14.2308 9.46339 16.5098 9.03299 7.59018 7.38859 6.8777 6.33617 14.2414 16.1221 2.4598 1.29239 0.0100296 0.00678628 0.0047728 0.00118561 0.00097247
threshold=1974.6441136671181 4.3827844250874772 8.5000000000000018 11.500000000000002 46.285714285714292 1013.7746955345067 1942.9208389715834 144.07142857142858 124.92857142857144 2.5000000000000004 10.500000000000002 1249.2083897158329 26.772449043661506 2.5000000000000004 35.807191677376665 2.5000000000000004 11.334323831297818 6.8708774633686049 10.500000000000002 351.21041948579165 150.1166666666667 147.18333333333337 1.0000000180025095e-35 10.500000000000002 38.738497939337783 77.642857142857153 13.277684343206317 2804.945196211097
decision_type=2 2 2 2 2 2 2 2 2 2 2 2 2 2 2 2 2 2 2 2 2 2 2 2 2 2 2 2
left_child=1 8 4 10 15 7 -7 -6 9 -1 11 -4 16 14 -14 -3 -2 -5 19 21 -21 -10 -20 26 25 -15 -18 -28
right_child=12 2 3 17 5 6 -8 -9 18 -11 -12 -13 13 24 -16 -17 23 -19 22 20 -22 -23 -24 -25 -26 -27 27 -29
leaf_value=0.047491453994937378 0.0038420624304691588 0.051970317903047944 0.044236142333244119 0.0076166564944415245 0.0097122438393341965 -0.019973818835067127 0.050072823721257896 0.049335300324464419 0.047255235408179996 -0.037537909669184674 0.051297210117482651 0.0098053176009402013 0.04222639046833445 -0.033904749336868684 -0.010075419047848434 0.017531892291581148 -0.033954099556552514 -0.040775761036131182 0.043388968946095959 0.031372753787211764 -0.02304466972206231 0.036891279728335322 0.052069802445570405 -0.035028996636752588 -0.036616916115789468 -0.035739157683371617 -0.033153881074439284 -0.033883614783391414
leaf_weight=6.2915216237306577 5.8300518542528179 14.821200147271158 24.693574905395508 7.6101494207978231 39.452440679073334 38.345928326249123 5.1758232787251464 13.969958424568174 46.178061127662659 5.438544325530529 31.732732489705086 19.207342863082886 7.3461938202381152 3.109911546111106 4.9911389872431755 9.4209863692522031 2.1808278262615266 4.0498126298189163 25.85962001979351 18.321762159466747 6.6887292116880408 37.225463211536407 38.289925575256348 3.4349169060587874 2.2783932685852051 2.1652799621224403 18.63668812066317 1.8025442212820042
leaf_count=9 31 18 40 32 134 273 10 21 55 36 34 72 18 31 35 32 22 22 31 37 31 57 36 30 16 17 217 19
internal_value=0.0239155 0.0292507 0.0206369 0.0320907 0.0123864 0.00583467 -0.0116435 0.0200737 0.038995 0.00806832 0.0384549 0.0291721 -0.0165572 -0.000318656 0.0210674 0.0385869 -0.0266873 -0.00919131 0.0410972 0.0366753 0.0168195 0.0426295 0.0485704 -0.0335185 -0.0352487 -0.0346577 -0.0332892 -0.0332182
internal_weight=444.55 392.774 208.48 87.2936 121.186 96.9442 43.5218 53.4224 184.294 11.7301 75.6337 43.9009 51.7759 19.8909 12.3373 24.2422 31.885 11.66 172.564 108.414 25.0105 83.4035 64.1495 26.055 7.55358 5.27519 22.6201 20.4392
internal_count=1416 980 688 200 488 438 283 155 292 45 146 112 436 117 53 50 319 54 247 180 68 112 67 288 64 48 258 236
is_linear=0
shrinkage=0.03


Tree=24
num_leaves=30
num_cat=0
split_feature=7 9 1 5 7 1 7 5 1 0 5 8 4 4 9 8 1 1 5 7 1 7 1 1 5 8 0 8 7
split_gain=100.438 34.8825 20.757 29.3634 26.6218 41.356 24.9952 21.796 14.0573 12.4852 22.1882 9.1852 15.7594 8.01417 7.96448 7.27058 7.07254 9.51278 12.1701 5.04489 2.54189 0.706807 0.483283 0.0618226 0.00910279 0.0061037 0.00432253 0.00107616 0.000886945
threshold=1974.6441136671181 4.3827844250874772 50.642857142857153 8.5000000000000018 1013.7746955345067 111.67857142857144 1942.9208389715834 11.500000000000002 80.392857142857153 124.92857142857144 2.5000000000000004 26.772449043661506 2.5000000000000004 1.5000000000000002 30.636223851083667 11.334323831297818 207.35714285714289 163.71428571428575 10.500000000000002 1302.3809201623819 121.03571428571429 26.170500676590112 227.92857142857147 68.785714285714292 10.500000000000002 38.738497939337783 77.642857142857153 13.277684343206317 2804.945196211097
decision_type=2 2 2 2 2 2 2 2 2 2 2 2 2 2 2 2 2 2 2 2 2 2 2 2 2 2 2 2 2
left_child=1 9 19 4 5 -4 -6 8 -5 10 -1 15 14 -9 -13 -2 17 20 -19 -3 -11 22 -18 -16 27 26 -14 -17 -29
right_child=11 2 3 7 6 -7 -8 13 -10 16 -12 12 25 -15 23 24 21 18 -20 -21 -22 -23 -24 -25 -26 -27 -28 28 -30
leaf_value=0.04592725392119542 0.003719459644715302 0.05379055980236909 -0.018538053653138473 -0.0015843855536707585 -0.020247349998027759 0.03795276333699265 0.050435511168063475 0.017266510810824528 0.040363560786422031 0.031358047881732139 -0.037267386484149782 0.047630398691378174 -0.033775152669330753 -0.038647915793890084 0.0020429959409459871 -0.033823747072718346 0.048474590351864209 0.0083289013252467112 0.047018099296254355 0.030156700595336233 0.044636919632796333 0.050581729394333322 0.041720047332538875 -0.0036051139858190124 -0.034860647894727682 -0.036382246199096503 -0.035543074868826824 -0.033051091155880258 -0.033757248892069325
leaf_weight=6.3103168159723264 5.8413839265704182 16.373778611421585 17.390788368880749 8.1504651308059675 39.358203932642937 35.415039345622063 5.0843362286686888 4.1990984976291639 61.007894299924374 17.399440288543701 5.315541684627533 5.4163076281547564 3.0294048562645903 5.120028480887413 3.4062466844916344 2.1244075000286164 16.466683775186539 21.408999189734459 11.117143884301184 16.142918609082699 51.011002659797668 31.889873459935188 22.642518177628517 3.5744022056460381 3.3492537811398497 2.2251020297408104 2.1127030998468399 18.141288258135322 1.7557201534509648
leaf_count=9 31 16 85 32 284 71 9 15 108 34 36 11 31 32 23 22 17 59 12 36 66 31 28 19 30 16 17 217 19
internal_value=0.0232896 0.0284434 0.0200392 0.0159649 0.00494856 0.0193484 -0.0121611 0.0296162 0.0354199 0.0379776 0.00788924 -0.0163224 -0.000319319 -0.0134535 0.0203319 -0.0264559 0.0400121 0.0349091 0.0215525 0.0420575 0.0412596 0.0472669 0.044564 -0.000849087 -0.0334035 -0.0350696 -0.0345015 -0.0331819 -0.0331134
internal_weight=442.78 391.804 208.243 175.726 97.2484 52.8058 44.4425 78.4775 69.1584 183.562 11.6259 50.9762 19.7642 9.31913 12.397 31.2121 171.936 100.937 32.5261 32.5167 68.4104 70.9991 39.1092 6.98065 25.3707 7.36721 5.14211 22.0214 19.897
internal_count=1416 980 688 636 449 156 293 187 140 292 45 436 117 47 53 319 247 171 71 52 100 76 45 42 288 64 48 258 236
is_linear=0
shrinkage=0.03


Tree=25
num_leaves=27
num_cat=0
split_feature=7 9 1 9 5 7 8 0 5 8 2 7 8 1 1 5 2 2 7 1 1 0 5 8 8 7
split_gain=94.6436 33.2103 19.821 35.4857 32.3221 24.7435 18.8934 11.7094 21.0303 8.91587 13.6414 9.25191 7.15565 6.96741 8.9521 11.619 5.82524 2.25239 0.70001 0.473635 0.0244217 0.0101953 0.00826394 0.0036959 0.000977057 0.000809042
threshold=1974.6441136671181 4.3827844250874772 30.464285714285719 28.828442941892728 8.5000000000000018 1013.7746955345067 5.3696768035374811 124.92857142857144 2.5000000000000004 26.772449043661506 91.500000000000014 2379.6441136671183 11.334323831297818 207.35714285714289 163.71428571428575 10.500000000000002 144.51666666666668 67.983333333333348 26.170500676590112 227.92857142857147 71.142857142857153 80.214285714285737 10.500000000000002 38.738497939337783 13.277684343206317 2804.945196211097
decision_type=2 2 2 2 2 2 2 2 2 2 2 2 2 2 2 2 2 2 2 2 2 2 2 2 2 2
left_child=1 7 -3 4 5 -4 -6 8 -1 12 11 17 -2 14 16 -16 -9 -11 19 -15 -5 23 24 -13 -14 -26
right_child=9 2 3 20 6 -7 -8 13 -10 10 -12 21 22 18 15 -17 -18 -19 -20 -21 -22 -23 -24 -25 25 -27
leaf_value=0.044464856502629255 0.0036010097933784329 0.047321361669667723 0.020792059187599066 -0.039184444112246829 -0.019843617450480334 -0.0099331125992076011 0.03761698172732135 0.044598312525488945 -0.03700825355870118 0.026501111731617472 0.047311086250874587 -0.034587948764090631 -0.033698133852866574 0.047400055361343625 0.0080679469345280707 0.045955679154167352 0.023111584382009654 -0.0063125059906350882 0.049523852797868834 0.04069030743516526 -0.036262297525068751 -0.037632857417389406 -0.03469860941615651 -0.036216338697423994 -0.032951954084065239 -0.033635379847005722
leaf_weight=6.3221209049224836 5.8523521199822452 20.706834703683853 56.132808737456799 5.2263588756322843 5.5324485301971427 40.687983132898808 74.514540068805218 53.937640562653542 5.1940156891942024 3.8181614950299281 4.2427479326724997 2.5621713101863861 2.0691904872655931 16.336724132299423 21.43797193467617 11.034173920750616 14.384113341569899 3.7140129506587982 31.598314076662064 22.520884171128273 5.0721015259623528 2.8460081741213799 3.2652171105146399 2.4577124789357185 17.657297477126125 1.7099108397960652
leaf_count=9 31 25 159 31 27 269 139 69 36 20 13 24 22 17 59 12 31 23 31 28 38 19 30 18 217 19
internal_value=0.0226895 0.0276722 0.0194703 0.016389 0.0195411 0.00788011 0.0336456 0.037001 0.0077188 -0.0160887 -0.000318887 -0.0134427 -0.026226 0.0389701 0.0339109 0.0209424 0.0400746 0.0103212 0.0462078 0.0435113 -0.0377453 -0.0361984 -0.0332927 -0.0353852 -0.0330785 -0.0330123
internal_weight=440.834 390.639 207.873 187.166 176.868 96.8208 80.047 182.766 11.5161 50.1948 19.6408 15.3981 30.554 171.25 100.794 32.4721 68.3218 7.53217 70.4559 38.8576 10.2985 7.86589 24.7016 5.01988 21.4364 19.3672
internal_count=1416 980 688 663 594 428 166 292 45 436 117 104 319 247 171 71 100 43 76 45 69 61 288 42 258 236
is_linear=0
shrinkage=0.03


Tree=26
num_leaves=32
num_cat=0
split_feature=7 9 5 5 3 7 7 7 5 7 5 7 4 3 4 8 8 3 8 9 8 7 5 7 8 0 5 8 8 8 0
split_gain=89.1872 31.7903 17.9162 21.7131 20.6873 29.0045 22.0848 16.6588 10.045 13.3441 9.29025 19.05 12.5421 9.04095 12.6378 14.5293 14.6485 8.35263 6.63786 3.02113 12.5494 1.29531 0.612117 0.0102688 0.00807895 0.00728963 0.00677683 0.00355548 0.00281095 0.00065366 5.64391e-06
threshold=1974.6441136671181 4.3827844250874772 8.5000000000000018 11.500000000000002 -0.79851368925814958 1013.7746955345067 1942.9208389715834 798.91069012178639 10.500000000000002 1249.2083897158329 10.500000000000002 351.21041948579165 2.5000000000000004 -0.24016687895014938 3.5000000000000004 26.772449043661506 11.448151879365303 0.37733802988183013 6.8708774633686049 0.53637391814020641 2.0293669615625105 1.0000000180025095e-35 3.5000000000000004 2910.0778078484445 27.206815578724626 173.21428571428575 9.5000000000000018 11.625417804467508 27.079449090266518 13.862129509841575 135.71428571428575
decision_type=2 2 2 2 2 2 2 2 2 2 2 2 2 2 2 2 2 2 2 2 2 2 2 2 2 2 2 2 2 2 2
left_child=1 10 4 8 -3 7 -7 -6 9 -4 11 19 -13 23 15 16 -15 -14 -5 22 -21 -12 -1 27 25 30 -18 -2 29 -29 -16
right_child=13 2 3 18 5 6 -8 -9 -10 -11 21 12 17 14 24 -17 26 -19 -20 20 -22 -23 -24 -25 -26 -27 -28 28 -30 -31 -32
leaf_value=0.037525908347390266 -0.034599991599453948 0.042674250421713009 0.04053440262210177 0.0073778380714468175 0.0053396815439342845 -0.018572811225781503 0.046756888734515514 0.037675388902862546 0.048071492855550048 0.0074368648885604913 0.04020979727123504 0.026555392383083774 -0.042692034949472879 0.043636637089159776 -0.032840279290991009 0.032844633714612069 -0.032943094426576953 0.0084496063664311026 -0.040536713490390355 0.013297925161628598 0.048549274953841703 0.049002889219962244 0.044318007320589055 -0.035835348599031557 -0.03525152370060209 -0.035106324177427012 -0.035013011723124508 -0.03352809154070719 -0.034077676102987633 -0.032914016048259845 -0.032910967296365598
leaf_weight=17.455835267901421 2.7199946939945248 16.430832520127296 24.794988125562668 7.5565250366926175 30.205164931714535 41.18708448112011 5.250798135995864 27.298190906643867 31.371430337429047 19.652971923351288 25.34795206785202 16.027878768742088 5.1895920559763891 2.8913292437791851 2.7569883465766889 9.9920436367392522 7.9479702934622747 6.4420562088489532 3.9689050391316414 18.061290703713894 18.295990511775017 37.212582111358643 37.803960099816322 2.1735327541828147 4.1004912033677101 1.8663244396448133 1.7341034188866613 2.1287816092371923 3.7107782512903214 5.8399544581770897 1.6103093624114988
leaf_count=24 24 23 40 32 104 295 10 56 34 72 31 37 29 7 35 33 99 18 22 48 23 36 46 17 35 18 15 24 36 73 20
internal_value=0.0220987 0.0269174 0.0188989 0.0292421 0.0113937 0.0064489 -0.0111859 0.0206902 0.0350739 0.0259001 0.036077 0.0311661 0.00934597 -0.015844 -0.00674172 0.00584105 -0.0156186 -0.0143678 -0.00912205 0.0377536 0.0310374 0.0454401 0.0421725 -0.0339133 -0.0342173 -0.033537 -0.0333138 -0.0336231 -0.0333957 -0.0330781 -0.0328663
internal_weight=439.027 389.554 207.717 87.3448 120.372 103.941 46.4379 57.5034 75.8194 44.448 181.837 119.277 27.6595 49.4726 32.8996 22.5654 12.5734 11.6316 11.5254 91.6171 36.3573 62.5605 55.2598 16.573 10.3341 6.23362 9.68207 14.3995 11.6795 7.96874 4.3673
internal_count=1416 980 688 200 488 465 305 160 146 112 292 225 84 436 262 154 121 47 54 141 71 67 70 174 108 73 114 157 133 97 55
is_linear=0
shrinkage=0.03


Tree=27
num_leaves=31
num_cat=0
split_feature=8 2 0 1 2 1 9 9 4 8 5 8 9 8 1 5 2 5 1 8 1 5 9 4 4 4 1 2 2 4
split_gain=82.2116 32.4207 21.5625 15.2421 22.3847 13.8504 11.2311 18.4166 10.5775 10.2769 10.6062 10.1027 15.1742 9.60715 15.9589 7.4969 57.4198 7.31883 7.00588 7.26748 6.09302 5.7966 5.11349 3.14438 2.29383 2.79656 3.86366 0.826322 0.0299635 0.00244796
threshold=11.625417804467508 65.450000000000017 135.21428571428575 40.642857142857146 148.3666666666667 176.17857142857147 6.5829640758788992 3.5693182138865613 2.5000000000000004 12.704019068688664 9.5000000000000018 26.772449043661506 35.459493195015298 2.986469482805592 110.21428571428572 10.500000000000002 152.30000000000004 10.500000000000002 55.428571428571438 31.375308313225098 73.857142857142875 11.500000000000002 491.48775028438871 4.5000000000000009 1.5000000000000002 3.5000000000000004 207.35714285714289 162.68333333333337 160.10000000000002 2.5000000000000004
decision_type=2 2 2 2 2 2 2 2 2 2 2 2 2 2 2 2 2 2 2 2 2 2 2 2 2 2 2 2 2 2
left_child=2 18 3 -1 6 28 7 -5 -8 10 23 17 20 24 -15 16 -16 22 -2 -20 -13 -17 -11 -3 -4 27 -27 -26 -6 -14
right_child=1 9 13 4 5 -7 8 -9 -10 11 -12 12 29 14 15 21 -18 -19 19 -21 -22 -23 -24 -25 25 26 -28 -29 -30 -31
leaf_value=0.042643409513220758 0.042252997458911729 -0.036315036425200925 0.030831795120708216 0.028471251261871024 -0.03805152892344052 0.024628648867658639 0.010046790121370764 -0.018193774319909074 0.039302554745548557 -0.033728118320691614 0.036236604066053647 0.044265864728132855 -0.034843937181379118 -0.02317998769199257 0.037490897142204382 0.049881639230187361 -0.039184806481189653 0.0095809021828561752 -0.015918131734928963 0.035775449259129379 0.00071450435316780015 0.027924014078833114 0.014074129229209434 0.0057775652439501935 0.052681925729597436 0.030317696579849226 0.045429761725179048 0.043846141988283419 -0.034894959735649482 -0.033730470119834377
leaf_weight=18.596169382333755 13.277567140758039 3.4787862673401815 22.242648616433144 15.385242708027365 4.1746173053979891 4.7463264837861052 17.472489736974239 15.063988342881201 30.604556009173393 34.22911524027586 7.0768107250332832 5.4904099032282847 3.6978975534439078 5.3776355087757102 45.449194341897964 22.366353958845139 10.89761373400688 4.5151919797062865 5.1145560219883901 4.6941485106945038 6.1070070415735245 20.96100352704525 2.1399319171905509 2.9530841931700706 17.314963966608047 32.056657373905182 29.001382455229759 21.175474137067795 7.695764347910881 3.4209633693099022
leaf_count=25 20 29 35 36 27 16 55 64 60 390 17 12 32 24 95 23 67 23 28 14 30 45 7 16 17 51 31 25 66 36
internal_value=0.0215457 -0.0029444 0.0284628 0.0178026 0.0129473 -0.0186859 0.0196411 0.00538491 0.0286702 -0.0127313 0.0108944 -0.0180862 0.000168902 0.0338079 0.0271603 0.0298763 0.0226616 -0.0264431 0.0280486 0.00882085 0.0213324 0.0392589 -0.0309155 -0.0169889 0.0395418 0.0414879 0.0374956 0.0478209 -0.0360051 -0.0343089
internal_weight=436.778 96.1955 340.582 113.739 95.143 16.6167 78.5263 30.4492 48.077 73.1092 13.5087 59.6005 18.7163 226.843 105.052 99.6742 56.3468 40.8842 23.0863 9.8087 11.5974 43.3274 36.369 6.43187 121.791 99.5485 61.058 38.4904 11.8704 7.11886
internal_count=1416 654 762 349 324 109 215 100 115 592 62 530 110 413 254 230 162 420 62 42 42 68 397 45 159 124 82 42 93 68
is_linear=0
shrinkage=0.03


Tree=28
num_leaves=28
num_cat=0
split_feature=7 9 2 5 3 7 9 5 7 2 3 7 2 8 7 2 3 5 9 8 8 2 7 7 8 2 8
split_gain=80.2133 28.8769 17.3402 27.1744 18.8516 26.4751 14.1813 9.18705 17.3976 11.0753 8.7228 11.7087 8.38555 10.4178 7.12183 6.61151 4.2326 3.77478 2.92372 12.049 2.7221 1.47648 1.34638 0.00935378 0.00357444 0.00249196 0.000682701
threshold=1974.6441136671181 4.3827844250874772 202.40000000000001 8.5000000000000018 -0.79851368925814958 1013.7746955345067 16.643899039317031 10.500000000000002 351.21041948579165 150.1166666666667 -0.24016687895014938 3028.1840324763198 69.63333333333334 11.448151879365303 1364.801082543979 138.68333333333337 -0.16907001824079818 1.5000000000000002 0.53637391814020641 2.0293669615625105 6.5986234775146277 177.00000000000003 1.0000000180025095e-35 2910.0778078484445 11.625417804467508 80.233333333333348 13.862129509841575
decision_type=2 2 2 2 2 2 2 2 2 2 2 2 2 2 2 2 2 2 2 2 2 2 2 2 2 2 2
left_child=1 7 3 4 -3 -6 16 8 18 15 23 12 -12 -14 -8 -10 -5 -15 21 -20 -4 -1 -9 24 -2 -26 -27
right_child=10 2 20 6 5 -7 14 22 9 -11 11 -13 13 17 -16 -17 -18 -19 19 -21 -22 -23 -24 -25 25 26 -28
leaf_value=0.036774336922369852 -0.034441541406900332 0.040767674898256265 -0.037712290197077274 0.050151060420320512 0.019525379042171703 -0.011031914648520829 0.02371225611640642 0.038395351778137903 0.0064555035559058687 -0.023888130539853555 0.019858633154216987 0.056359492921338863 0.028115712507095856 0.001287940193125044 -0.020110685104429177 0.04158379698024485 0.033887201492525221 -0.033753046293217272 0.011834588656875004 0.046441085850775485 -0.003167800121254674 0.047321902922833378 0.047443552621309872 -0.035598217364985814 -0.03397971420287834 -0.033422717962320846 -0.032793620106920947
leaf_weight=37.140778124332428 2.6349340304732314 16.242654904723167 5.1379072219133359 21.730429366230965 57.664877384901047 45.774791024625301 8.209093436598776 24.931119978427887 12.767343610525137 7.0391027554869643 6.0213323608040836 2.4586040526628485 3.4865043610334423 3.3069559633731869 5.6242120489478102 7.7485027760267249 42.699291117489338 16.939967758953571 18.066056899726391 18.153163321316242 3.4192698821425438 17.606817871332169 36.425712406635284 2.0978510305285445 2.8411706611514083 2.0676040872931463 6.2319662421941757
leaf_count=51 24 23 34 26 160 305 22 31 37 35 26 4 10 27 28 12 74 195 48 23 16 19 36 17 28 24 81
internal_value=0.0210091 0.0255566 0.0179022 0.0197096 0.0107211 0.00600297 0.0334553 0.034344 0.0294659 0.00858215 -0.0155301 -0.00656093 -0.01176 -0.0197818 0.00589515 0.0197229 0.0393726 -0.0280298 0.0357919 0.0291795 -0.023909 0.0401664 0.043767 -0.0337321 -0.0334479 -0.0332129 -0.0329503
internal_weight=434.468 386.381 206.503 197.945 119.682 103.44 78.263 179.879 118.522 27.5549 48.0869 32.2134 29.7548 23.7334 13.8333 20.5158 64.4297 20.2469 90.9668 36.2192 8.55718 54.7476 61.3568 15.8735 13.7757 11.1407 8.29957
internal_count=1416 980 688 638 488 465 150 292 225 84 436 262 258 232 50 49 100 222 141 71 50 70 67 174 157 133 105
is_linear=0
shrinkage=0.03


Tree=29
num_leaves=29
num_cat=0
split_feature=7 8 1 0 7 8 1 3 4 8 8 0 1 1 1 1 7 3 2 8 2 7 1 8 1 7 8 7
split_gain=75.7018 26.6576 14.9719 24.6151 15.9206 19.4935 15.212 8.53907 12.0709 12.7249 13.0324 5.28089 4.38719 27.3476 2.69897 5.55169 5.87913 0.513899 0.0264387 0.00887784 0.00931112 0.00846184 0.00359907 0.00323178 0.00242912 0.000637867 0.00021074 1.91284e-05
threshold=1974.6441136671181 2.986469482805592 30.464285714285719 39.142857142857146 637.8673883626526 12.440181154108076 115.75000000000001 -0.24016687895014938 3.5000000000000004 26.772449043661506 11.448151879365303 145.92857142857147 144.21428571428575 85.321428571428584 141.82142857142858 207.35714285714289 105.90730717185397 0.049279072289107655 150.75333333333336 27.206815578724626 151.33333333333337 2910.0778078484445 204.71428571428575 11.625417804467508 83.178571428571431 2282.2483085250346 14.84374401427924 2468.6840324763202
decision_type=2 2 2 2 2 2 2 2 2 2 2 2 2 2 2 2 2 2 2 2 2 2 2 2 2 2 2 2
left_child=1 11 -3 18 6 -6 -5 21 9 10 -9 12 13 -1 -13 16 -16 -17 -4 20 27 23 -12 -2 25 -25 -26 -10
right_child=7 2 3 4 5 -7 -8 8 19 -11 22 14 -14 -15 15 17 -18 -19 -20 -21 -22 -23 -24 24 26 -27 -28 -29
leaf_value=0.052709734660061798 -0.034292282206418542 0.043759367104114731 -0.039573540226364314 -0.030065851412873507 0.026276198288018266 0.0013862452248380203 0.014497949057104935 0.039483674925296711 -0.032577158391903067 0.030654462972320808 -0.032770779142901357 0.048199703569172164 0.040514059636791049 -0.029526460310543498 0.035554104651193796 0.047308556599129206 0.01046877493256917 0.040504002659582455 -0.035869526022643441 -0.035203230654666906 -0.035310254380198858 -0.035406235910865169 -0.034319551965750643 -0.033964915130308589 -0.032949207495141734 -0.033276385231276726 -0.03257536190568195 -0.032710532634377752
leaf_weight=7.451395511627199 2.5680213347077361 20.290677472949028 4.1373316496610633 10.867587611079218 157.42257729172707 34.531372487545013 18.853988468647003 2.963708281517035 2.6932758986949903 10.106396302580832 7.3370241522788984 20.034739509224892 7.7228955999016753 7.114192508161068 25.274190440773964 13.058071076869963 12.600508272647856 42.499942868947983 2.9861277118325233 4.0052726566791534 1.6063700467348097 2.0467219054698935 1.6549840345978735 2.3350667133927328 2.0761209353804588 2.5154543519020081 3.9183313995599747 1.510587729513645
leaf_count=7 24 25 24 56 398 198 50 7 37 33 97 20 14 36 36 13 29 50 24 35 16 17 17 24 26 29 54 20
internal_value=0.0204869 0.0248904 0.0190614 0.0168711 0.0186351 0.0217986 -0.00179664 -0.015313 -0.0064398 0.00587369 -0.015074 0.0355855 0.0222353 0.0125435 0.0382079 0.0360654 0.0272085 0.0421033 -0.0380208 -0.0341166 -0.0333675 -0.0336095 -0.0330558 -0.0333353 -0.0331087 -0.0336078 -0.0327048 -0.0326251
internal_weight=432.183 384.846 249.09 228.799 221.676 191.954 29.7216 47.3373 31.8776 22.0621 11.9557 135.756 22.2885 14.5656 113.467 93.4327 37.8747 55.558 7.12346 9.81551 5.81023 15.4597 8.99201 13.413 10.845 4.85052 5.99445 4.20386
internal_count=1416 980 775 750 702 596 106 436 262 154 121 205 57 43 148 128 65 63 48 108 73 174 114 157 133 53 80 57
is_linear=0
shrinkage=0.03


Tree=30
num_leaves=32
num_cat=0
split_feature=7 9 1 5 7 1 8 5 5 1 4 8 8 9 4 0 5 1 5 7 7 1 7 1 8 1 5 1 7 9 1
split_gain=71.3338 27.2883 17.2092 22.0806 19.6685 36.6234 22.3171 17.1672 13.1358 10.0687 8.29847 10.5965 7.91484 7.914 7.39958 6.69248 18.6843 8.67646 10.8088 4.84961 3.08356 2.27062 0.84585 0.53036 0.00999307 0.0108273 0.00746106 0.00269895 0.000521956 0.000322242 8.65818e-05
threshold=1974.6441136671181 4.3827844250874772 50.642857142857153 8.5000000000000018 1013.7746955345067 111.67857142857144 27.681710714018902 11.500000000000002 10.500000000000002 207.35714285714289 3.5000000000000004 26.772449043661506 11.448151879365303 35.807191677376665 1.5000000000000002 124.92857142857144 2.5000000000000004 163.71428571428575 10.500000000000002 1302.3809201623819 2400.2083897158332 121.03571428571429 26.170500676590112 227.92857142857147 27.206815578724626 211.60714285714289 10.500000000000002 67.321428571428598 2651.1021650879579 36.426852162017092 170.03571428571431
decision_type=2 2 2 2 2 2 2 2 2 2 2 2 2 2 2 2 2 2 2 2 2 2 2 2 2 2 2 2 2 2 2
left_child=1 9 19 4 5 -4 -6 8 -5 15 11 12 -2 -13 -9 16 -1 21 -19 -3 -15 -17 23 -11 25 29 28 -26 -14 30 -12
right_child=10 2 3 7 6 -7 -8 14 -10 22 24 13 26 20 -16 17 -18 18 -20 -21 -22 -23 -24 -25 27 -27 -28 -29 -30 -31 -32
